{"learner":{"attributes":{},"feature_names":["log_ret","vol_rel","dist_vwap","body_size","upper_shadow","lower_shadow","clv","log_ret_lag_1","vol_rel_lag_1","log_ret_lag_2","vol_rel_lag_2","log_ret_lag_3","vol_rel_lag_3","log_ret_lag_5","vol_rel_lag_5","log_ret_lag_10","vol_rel_lag_10","day_sin","day_cos","month_sin","month_cos"],"feature_types":["float","float","float","float","float","float","float","float","float","float","float","float","float","float","float","float","float","float","float","float","float"],"gradient_booster":{"model":{"cats":{"enc":[],"feature_segments":[],"sorted_idx":[]},"gbtree_model_param":{"num_parallel_tree":"1","num_trees":"263"},"iteration_indptr":[0,1,2,3,4,5,6,7,8,9,10,11,12,13,14,15,16,17,18,19,20,21,22,23,24,25,26,27,28,29,30,31,32,33,34,35,36,37,38,39,40,41,42,43,44,45,46,47,48,49,50,51,52,53,54,55,56,57,58,59,60,61,62,63,64,65,66,67,68,69,70,71,72,73,74,75,76,77,78,79,80,81,82,83,84,85,86,87,88,89,90,91,92,93,94,95,96,97,98,99,100,101,102,103,104,105,106,107,108,109,110,111,112,113,114,115,116,117,118,119,120,121,122,123,124,125,126,127,128,129,130,131,132,133,134,135,136,137,138,139,140,141,142,143,144,145,146,147,148,149,150,151,152,153,154,155,156,157,158,159,160,161,162,163,164,165,166,167,168,169,170,171,172,173,174,175,176,177,178,179,180,181,182,183,184,185,186,187,188,189,190,191,192,193,194,195,196,197,198,199,200,201,202,203,204,205,206,207,208,209,210,211,212,213,214,215,216,217,218,219,220,221,222,223,224,225,226,227,228,229,230,231,232,233,234,235,236,237,238,239,240,241,242,243,244,245,246,247,248,249,250,251,252,253,254,255,256,257,258,259,260,261,262,263],"tree_info":[0,0,0,0,0,0,0,0,0,0,0,0,0,0,0,0,0,0,0,0,0,0,0,0,0,0,0,0,0,0,0,0,0,0,0,0,0,0,0,0,0,0,0,0,0,0,0,0,0,0,0,0,0,0,0,0,0,0,0,0,0,0,0,0,0,0,0,0,0,0,0,0,0,0,0,0,0,0,0,0,0,0,0,0,0,0,0,0,0,0,0,0,0,0,0,0,0,0,0,0,0,0,0,0,0,0,0,0,0,0,0,0,0,0,0,0,0,0,0,0,0,0,0,0,0,0,0,0,0,0,0,0,0,0,0,0,0,0,0,0,0,0,0,0,0,0,0,0,0,0,0,0,0,0,0,0,0,0,0,0,0,0,0,0,0,0,0,0,0,0,0,0,0,0,0,0,0,0,0,0,0,0,0,0,0,0,0,0,0,0,0,0,0,0,0,0,0,0,0,0,0,0,0,0,0,0,0,0,0,0,0,0,0,0,0,0,0,0,0,0,0,0,0,0,0,0,0,0,0,0,0,0,0,0,0,0,0,0,0,0,0,0,0,0,0,0,0,0,0,0,0,0,0,0,0,0,0,0,0,0,0,0,0],"trees":[{"base_weights":[-4.3037526E-5,1.8464403E-2,-1.015528E-3,8.2995844E-5,1.458322E-5,-8.016419E-7,-3.0442961E-5],"categories":[],"categories_nodes":[],"categories_segments":[],"categories_sizes":[],"default_left":[0,0,0,0,0,0,0],"id":0,"left_children":[1,3,5,-1,-1,-1,-1],"loss_changes":[2.3794517E-2,1.938561E-2,1.0043573E-2,0E0,0E0,0E0,0E0],"parents":[2147483647,0,0,1,1,2,2],"right_children":[2,4,6,-1,-1,-1,-1],"split_conditions":[-2.6500015E-2,-7.375355E-2,3.9973218E-2,8.2995844E-5,1.458322E-5,-8.016419E-7,-3.0442961E-5],"split_indices":[2,11,5,0,0,0,0],"split_type":[0,0,0,0,0,0,0],"sum_hessian":[1.32E3,6.5E1,1.255E3,5E0,6E1,1.241E3,1.4E1],"tree_param":{"num_deleted":"0","num_feature":"21","num_nodes":"7","size_leaf_vector":"1"}},{"base_weights":[2.4036062E-4,1.9742075E-2,-7.223211E-4,6.4619744E-5,1.7097436E-5,-2.3161134E-5,-2.6593088E-7],"categories":[],"categories_nodes":[],"categories_segments":[],"categories_sizes":[],"default_left":[0,0,0,0,0,0,0],"id":1,"left_children":[1,3,5,-1,-1,-1,-1],"loss_changes":[2.5941074E-2,1.0517031E-2,1.2624285E-2,0E0,0E0,0E0,0E0],"parents":[2147483647,0,0,1,1,2,2],"right_children":[2,4,6,-1,-1,-1,-1],"split_conditions":[-2.5148166E-2,-1.0013197E-1,-6.4302266E-2,6.4619744E-5,1.7097436E-5,-2.3161134E-5,-2.6593088E-7],"split_indices":[2,0,7,0,0,0,0],"split_type":[0,0,0,0,0,0,0],"sum_hessian":[1.38E3,6.4E1,1.316E3,6E0,5.8E1,3.1E1,1.285E3],"tree_param":{"num_deleted":"0","num_feature":"21","num_nodes":"7","size_leaf_vector":"1"}},{"base_weights":[5.757751E-5,1.8382385E-2,-1.1375634E-3,6.376064E-5,1.2906139E-5,-6.684531E-5,-1.0389599E-6],"categories":[],"categories_nodes":[],"categories_segments":[],"categories_sizes":[],"default_left":[0,0,0,0,0,0,0],"id":2,"left_children":[1,3,5,-1,-1,-1,-1],"loss_changes":[3.004681E-2,2.1633329E-2,1.6635815E-2,0E0,0E0,0E0,0E0],"parents":[2147483647,0,0,1,1,2,2],"right_children":[2,4,6,-1,-1,-1,-1],"split_conditions":[-3.9079737E-2,-5.3393465E-2,-7.937936E-2,6.376064E-5,1.2906139E-5,-6.684531E-5,-1.0389599E-6],"split_indices":[3,11,0,0,0,0,0],"split_type":[0,0,0,0,0,0,0],"sum_hessian":[1.37E3,8.3E1,1.287E3,1.2E1,7.1E1,4E0,1.283E3],"tree_param":{"num_deleted":"0","num_feature":"21","num_nodes":"7","size_leaf_vector":"1"}},{"base_weights":[-1.611362E-4,6.553783E-2,-4.0009813E-4,2.2624563E-5,8.196417E-5,1.1501895E-6,-9.565523E-6],"categories":[],"categories_nodes":[],"categories_segments":[],"categories_sizes":[],"default_left":[0,0,0,0,0,0,0],"id":3,"left_children":[1,3,5,-1,-1,-1,-1],"loss_changes":[2.1660207E-2,4.215911E-5,1.5512324E-2,0E0,0E0,0E0,0E0],"parents":[2147483647,0,0,1,1,2,2],"right_children":[2,4,6,-1,-1,-1,-1],"split_conditions":[-1.0013197E-1,-8.3583884E-2,2.3358928E-2,2.2624563E-5,8.196417E-5,1.1501895E-6,-9.565523E-6],"split_indices":[0,3,3,0,0,0,0],"split_type":[0,0,0,0,0,0,0],"sum_hessian":[1.377E3,4E0,1.373E3,1E0,3E0,1.168E3,2.05E2],"tree_param":{"num_deleted":"0","num_feature":"21","num_nodes":"7","size_leaf_vector":"1"}},{"base_weights":[-9.5124013E-4,1.8022228E-2,-2.1145914E-3,6.475922E-5,1.0522106E-5,-4.400103E-5,-1.9029865E-6],"categories":[],"categories_nodes":[],"categories_segments":[],"categories_sizes":[],"default_left":[0,0,0,0,0,0,0],"id":4,"left_children":[1,3,5,-1,-1,-1,-1],"loss_changes":[2.9417017E-2,2.5744904E-2,2.0256368E-2,0E0,0E0,0E0,0E0],"parents":[2147483647,0,0,1,1,2,2],"right_children":[2,4,6,-1,-1,-1,-1],"split_conditions":[-3.9079737E-2,-4.4856004E-2,-8.588037E-2,6.475922E-5,1.0522106E-5,-4.400103E-5,-1.9029865E-6],"split_indices":[3,11,7,0,0,0,0],"split_type":[0,0,0,0,0,0,0],"sum_hessian":[1.33E3,7.6E1,1.254E3,1.3E1,6.3E1,1.4E1,1.24E3],"tree_param":{"num_deleted":"0","num_feature":"21","num_nodes":"7","size_leaf_vector":"1"}},{"base_weights":[-7.89316E-4,2.7127033E-2,-1.179317E-3,8.2017876E-5,1.1783925E-5,-4.6167446E-5,-1.0763414E-6],"categories":[],"categories_nodes":[],"categories_segments":[],"categories_sizes":[],"default_left":[0,0,0,0,0,0,0],"id":5,"left_children":[1,3,5,-1,-1,-1,-1],"loss_changes":[1.501306E-2,1.356966E-2,1.247152E-2,0E0,0E0,0E0,0E0],"parents":[2147483647,0,0,1,1,2,2],"right_children":[2,4,6,-1,-1,-1,-1],"split_conditions":[-7.937936E-2,-5.3393465E-2,-1.0013197E-1,8.2017876E-5,1.1783925E-5,-4.6167446E-5,-1.0763414E-6],"split_indices":[13,11,7,0,0,0,0],"split_type":[0,0,0,0,0,0,0],"sum_hessian":[1.375E3,1.8E1,1.357E3,4E0,1.4E1,7E0,1.35E3],"tree_param":{"num_deleted":"0","num_feature":"21","num_nodes":"7","size_leaf_vector":"1"}},{"base_weights":[-1.3833112E-4,1.8757494E-2,-1.4613761E-3,5.175698E-5,1.3985261E-5,-3.0831052E-5,-8.1304364E-7],"categories":[],"categories_nodes":[],"categories_segments":[],"categories_sizes":[],"default_left":[0,0,0,0,0,0,0],"id":6,"left_children":[1,3,5,-1,-1,-1,-1],"loss_changes":[3.400245E-2,1.4826864E-2,2.4311941E-2,0E0,0E0,0E0,0E0],"parents":[2147483647,0,0,1,1,2,2],"right_children":[2,4,6,-1,-1,-1,-1],"split_conditions":[-3.9079737E-2,-4.4856004E-2,-6.70354E-2,5.175698E-5,1.3985261E-5,-3.0831052E-5,-8.1304364E-7],"split_indices":[3,11,7,0,0,0,0],"split_type":[0,0,0,0,0,0,0],"sum_hessian":[1.358E3,8.8E1,1.27E3,1.6E1,7.2E1,3.5E1,1.235E3],"tree_param":{"num_deleted":"0","num_feature":"21","num_nodes":"7","size_leaf_vector":"1"}},{"base_weights":[8.390246E-4,-3.5382107E-2,1.1051309E-3,-1.0509977E-4,2.505655E-6,3.8366423E-5,9.2677953E-7],"categories":[],"categories_nodes":[],"categories_segments":[],"categories_sizes":[],"default_left":[0,0,0,0,0,0,0],"id":7,"left_children":[1,3,5,-1,-1,-1,-1],"loss_changes":[1.3215164E-2,2.1596856E-2,1.2859136E-2,0E0,0E0,0E0,0E0],"parents":[2147483647,0,0,1,1,2,2],"right_children":[2,4,6,-1,-1,-1,-1],"split_conditions":[-8.588037E-2,7.974464E-1,-8.588037E-2,-1.0509977E-4,2.505655E-6,3.8366423E-5,9.2677953E-7],"split_indices":[7,14,13,0,0,0,0],"split_type":[0,0,0,0,0,0,0],"sum_hessian":[1.366E3,9E0,1.357E3,3E0,6E0,1.1E1,1.346E3],"tree_param":{"num_deleted":"0","num_feature":"21","num_nodes":"7","size_leaf_vector":"1"}},{"base_weights":[1.0887333E-5,1.919926E-2,-9.6857396E-4,5.908185E-5,1.1615627E-5,2.2262173E-5,-1.5998569E-6],"categories":[],"categories_nodes":[],"categories_segments":[],"categories_sizes":[],"default_left":[0,0,0,0,0,0,0],"id":8,"left_children":[1,3,5,-1,-1,-1,-1],"loss_changes":[2.5541214E-2,1.888369E-2,1.1610367E-2,0E0,0E0,0E0,0E0],"parents":[2147483647,0,0,1,1,2,2],"right_children":[2,4,6,-1,-1,-1,-1],"split_conditions":[-2.6500015E-2,-4.188555E-2,-7.0521295E-2,5.908185E-5,1.1615627E-5,2.2262173E-5,-1.5998569E-6],"split_indices":[2,11,13,0,0,0,0],"split_type":[0,0,0,0,0,0,0],"sum_hessian":[1.357E3,6.5E1,1.292E3,1.3E1,5.2E1,2.6E1,1.266E3],"tree_param":{"num_deleted":"0","num_feature":"21","num_nodes":"7","size_leaf_vector":"1"}},{"base_weights":[1.2804366E-4,2.1153279E-2,-7.7689847E-4,1.8935298E-5,8.5010615E-5,-2.6958172E-5,-1.718134E-7],"categories":[],"categories_nodes":[],"categories_segments":[],"categories_sizes":[],"default_left":[0,0,0,0,0,0,0],"id":9,"left_children":[1,3,5,-1,-1,-1,-1],"loss_changes":[2.5359895E-2,1.2069279E-2,1.831686E-2,0E0,0E0,0E0,0E0],"parents":[2147483647,0,0,1,1,2,2],"right_children":[2,4,6,-1,-1,-1,-1],"split_conditions":[-2.6500015E-2,1.8272505E0,-6.70354E-2,1.8935298E-5,8.5010615E-5,-2.6958172E-5,-1.718134E-7],"split_indices":[2,10,7,0,0,0,0],"split_type":[0,0,0,0,0,0,0],"sum_hessian":[1.331E3,5.4E1,1.277E3,5.1E1,3E0,3.3E1,1.244E3],"tree_param":{"num_deleted":"0","num_feature":"21","num_nodes":"7","size_leaf_vector":"1"}},{"base_weights":[1.7505013E-4,2.043655E-2,-9.4725983E-4,5.6709305E-5,1.6309104E-5,-5.4665874E-5,-7.8782836E-7],"categories":[],"categories_nodes":[],"categories_segments":[],"categories_sizes":[],"default_left":[0,0,0,0,0,0,0],"id":10,"left_children":[1,3,5,-1,-1,-1,-1],"loss_changes":[3.1195464E-2,1.2212604E-2,1.5588845E-2,0E0,0E0,0E0,0E0],"parents":[2147483647,0,0,1,1,2,2],"right_children":[2,4,6,-1,-1,-1,-1],"split_conditions":[-2.5148166E-2,-4.188555E-2,-7.0521295E-2,5.6709305E-5,1.6309104E-5,-5.4665874E-5,-7.8782836E-7],"split_indices":[2,11,0,0,0,0,0],"split_type":[0,0,0,0,0,0,0],"sum_hessian":[1.37E3,7.1E1,1.299E3,1.1E1,6E1,6E0,1.293E3],"tree_param":{"num_deleted":"0","num_feature":"21","num_nodes":"7","size_leaf_vector":"1"}},{"base_weights":[-3.337358E-5,2.0961054E-2,-1.191771E-3,6.560248E-5,1.5403255E-5,-3.7847505E-5,-5.3873555E-7],"categories":[],"categories_nodes":[],"categories_segments":[],"categories_sizes":[],"default_left":[0,0,0,0,0,0,0],"id":11,"left_children":[1,3,5,-1,-1,-1,-1],"loss_changes":[3.3951227E-2,1.9109756E-2,3.0453805E-2,0E0,0E0,0E0,0E0],"parents":[2147483647,0,0,1,1,2,2],"right_children":[2,4,6,-1,-1,-1,-1],"split_conditions":[-2.5148166E-2,-5.3393465E-2,-6.70354E-2,6.560248E-5,1.5403255E-5,-3.7847505E-5,-5.3873555E-7],"split_indices":[2,11,7,0,0,0,0],"split_type":[0,0,0,0,0,0,0],"sum_hessian":[1.394E3,7.2E1,1.322E3,1.1E1,6.1E1,2.8E1,1.294E3],"tree_param":{"num_deleted":"0","num_feature":"21","num_nodes":"7","size_leaf_vector":"1"}},{"base_weights":[3.7454377E-4,2.2417745E-2,-6.269527E-4,2.0121824E-5,8.201338E-5,3.1119296E-5,-1.0725997E-6],"categories":[],"categories_nodes":[],"categories_segments":[],"categories_sizes":[],"default_left":[0,0,0,0,0,0,0],"id":12,"left_children":[1,3,5,-1,-1,-1,-1],"loss_changes":[3.0986944E-2,1.3087936E-2,1.1856483E-2,0E0,0E0,0E0,0E0],"parents":[2147483647,0,0,1,1,2,2],"right_children":[2,4,6,-1,-1,-1,-1],"split_conditions":[-2.8766869E-2,1.7718705E0,-8.588037E-2,2.0121824E-5,8.201338E-5,3.1119296E-5,-1.0725997E-6],"split_indices":[2,10,13,0,0,0,0],"split_type":[0,0,0,0,0,0,0],"sum_hessian":[1.402E3,6E1,1.342E3,5.6E1,4E0,1.4E1,1.328E3],"tree_param":{"num_deleted":"0","num_feature":"21","num_nodes":"7","size_leaf_vector":"1"}},{"base_weights":[-1.6881357E-4,1.4712344E-2,-1.1096449E-3,7.174714E-5,1.2962724E-5,-3.407118E-5,-8.4780817E-7],"categories":[],"categories_nodes":[],"categories_segments":[],"categories_sizes":[],"default_left":[0,0,0,0,0,0,0],"id":13,"left_children":[1,3,5,-1,-1,-1,-1],"loss_changes":[1.9071221E-2,1.2301205E-2,1.3451587E-2,0E0,0E0,0E0,0E0],"parents":[2147483647,0,0,1,1,2,2],"right_children":[2,4,6,-1,-1,-1,-1],"split_conditions":[-3.9079737E-2,-1.0013197E-1,-7.375355E-2,7.174714E-5,1.2962724E-5,-3.407118E-5,-8.4780817E-7],"split_indices":[3,0,9,0,0,0,0],"split_type":[0,0,0,0,0,0,0],"sum_hessian":[1.36E3,8E1,1.28E3,4E0,7.6E1,1.5E1,1.265E3],"tree_param":{"num_deleted":"0","num_feature":"21","num_nodes":"7","size_leaf_vector":"1"}},{"base_weights":[-2.2385595E-4,1.8160174E-2,-1.3665133E-3,6.2066465E-5,1.3286408E-5,-5.2795476E-5,-1.158727E-6],"categories":[],"categories_nodes":[],"categories_segments":[],"categories_sizes":[],"default_left":[0,0,0,0,0,0,0],"id":14,"left_children":[1,3,5,-1,-1,-1,-1],"loss_changes":[2.9077007E-2,1.8476496E-2,2.0407742E-2,0E0,0E0,0E0,0E0],"parents":[2147483647,0,0,1,1,2,2],"right_children":[2,4,6,-1,-1,-1,-1],"split_conditions":[-2.3584906E-2,-5.3393465E-2,-8.588037E-2,6.2066465E-5,1.3286408E-5,-5.2795476E-5,-1.158727E-6],"split_indices":[2,11,7,0,0,0,0],"split_type":[0,0,0,0,0,0,0],"sum_hessian":[1.382E3,8E1,1.302E3,1.1E1,6.9E1,9E0,1.293E3],"tree_param":{"num_deleted":"0","num_feature":"21","num_nodes":"7","size_leaf_vector":"1"}},{"base_weights":[2.6142376E-4,3.696678E-2,-1.4873392E-4,5.189524E-5,-1.4428105E-5,-4.389228E-5,2.246795E-7],"categories":[],"categories_nodes":[],"categories_segments":[],"categories_sizes":[],"default_left":[0,0,0,0,0,0,0],"id":15,"left_children":[1,3,5,-1,-1,-1,-1],"loss_changes":[2.0435112E-2,6.989477E-3,1.7854882E-2,0E0,0E0,0E0,0E0],"parents":[2147483647,0,0,1,1,2,2],"right_children":[2,4,6,-1,-1,-1,-1],"split_conditions":[-7.937936E-2,3.7533395E-2,-8.588037E-2,5.189524E-5,-1.4428105E-5,-4.389228E-5,2.246795E-7],"split_indices":[13,0,7,0,0,0,0],"split_type":[0,0,0,0,0,0,0],"sum_hessian":[1.356E3,1.4E1,1.342E3,1.2E1,2E0,1.1E1,1.331E3],"tree_param":{"num_deleted":"0","num_feature":"21","num_nodes":"7","size_leaf_vector":"1"}},{"base_weights":[6.6660356E-4,3.1020638E-2,3.4160205E-4,1.9021874E-5,7.5384356E-5,7.599541E-7,-2.9903751E-5],"categories":[],"categories_nodes":[],"categories_segments":[],"categories_sizes":[],"default_left":[0,0,0,0,0,0,0],"id":16,"left_children":[1,3,5,-1,-1,-1,-1],"loss_changes":[1.396826E-2,6.44912E-3,1.2180457E-2,0E0,0E0,0E0,0E0],"parents":[2147483647,0,0,1,1,2,2],"right_children":[2,4,6,-1,-1,-1,-1],"split_conditions":[-8.588037E-2,2.4349751E-2,3.9973218E-2,1.9021874E-5,7.5384356E-5,7.599541E-7,-2.9903751E-5],"split_indices":[13,5,5,0,0,0,0],"split_type":[0,0,0,0,0,0,0],"sum_hessian":[1.416E3,1.4E1,1.402E3,1.1E1,3E0,1.386E3,1.6E1],"tree_param":{"num_deleted":"0","num_feature":"21","num_nodes":"7","size_leaf_vector":"1"}},{"base_weights":[-6.493638E-4,1.798398E-2,-1.6816985E-3,5.885823E-5,1.2717513E-5,-1.2792749E-6,-2.9135144E-5],"categories":[],"categories_nodes":[],"categories_segments":[],"categories_sizes":[],"default_left":[0,0,0,0,0,0,0],"id":17,"left_children":[1,3,5,-1,-1,-1,-1],"loss_changes":[2.6748834E-2,1.619182E-2,1.7544676E-2,0E0,0E0,0E0,0E0],"parents":[2147483647,0,0,1,1,2,2],"right_children":[2,4,6,-1,-1,-1,-1],"split_conditions":[-2.5148166E-2,-5.3393465E-2,2.6745914E-2,5.885823E-5,1.2717513E-5,-1.2792749E-6,-2.9135144E-5],"split_indices":[2,11,2,0,0,0,0],"split_type":[0,0,0,0,0,0,0],"sum_hessian":[1.388E3,7.2E1,1.316E3,1.1E1,6.1E1,1.287E3,2.9E1],"tree_param":{"num_deleted":"0","num_feature":"21","num_nodes":"7","size_leaf_vector":"1"}},{"base_weights":[-5.299107E-4,1.20592015E-2,-2.057287E-3,1.0601364E-5,6.15768E-5,-3.2241904E-5,-1.7237487E-6],"categories":[],"categories_nodes":[],"categories_segments":[],"categories_sizes":[],"default_left":[0,0,0,0,0,0,0],"id":18,"left_children":[1,3,5,-1,-1,-1,-1],"loss_changes":[2.6656017E-2,1.6819838E-2,1.7593218E-2,0E0,0E0,0E0,0E0],"parents":[2147483647,0,0,1,1,2,2],"right_children":[2,4,6,-1,-1,-1,-1],"split_conditions":[-3.3774316E-2,3.3004925E-2,-3.132985E-2,1.0601364E-5,6.15768E-5,-3.2241904E-5,-1.7237487E-6],"split_indices":[0,4,0,0,0,0,0],"split_type":[0,0,0,0,0,0,0],"sum_hessian":[1.384E3,1.49E2,1.235E3,1.41E2,8E0,2.4E1,1.211E3],"tree_param":{"num_deleted":"0","num_feature":"21","num_nodes":"7","size_leaf_vector":"1"}},{"base_weights":[-4.93825E-5,1.5004625E-2,-1.0298738E-3,6.717185E-5,1.10079445E-5,-9.133107E-7,-4.3097498E-5],"categories":[],"categories_nodes":[],"categories_segments":[],"categories_sizes":[],"default_left":[0,0,0,0,0,0,0],"id":19,"left_children":[1,3,5,-1,-1,-1,-1],"loss_changes":[2.0517543E-2,1.9384408E-2,1.0912866E-2,0E0,0E0,0E0,0E0],"parents":[2147483647,0,0,1,1,2,2],"right_children":[2,4,6,-1,-1,-1,-1],"split_conditions":[-3.9079737E-2,-7.375355E-2,1.07214086E-1,6.717185E-5,1.10079445E-5,-9.133107E-7,-4.3097498E-5],"split_indices":[3,11,0,0,0,0,0],"split_type":[0,0,0,0,0,0,0],"sum_hessian":[1.388E3,8.4E1,1.304E3,8E0,7.6E1,1.297E3,7E0],"tree_param":{"num_deleted":"0","num_feature":"21","num_nodes":"7","size_leaf_vector":"1"}},{"base_weights":[7.8801584E-4,3.343526E-2,4.241459E-4,7.3658215E-5,1.8431643E-5,1.598872E-5,-4.173915E-7],"categories":[],"categories_nodes":[],"categories_segments":[],"categories_sizes":[],"default_left":[0,0,0,0,0,0,0],"id":20,"left_children":[1,3,5,-1,-1,-1,-1],"loss_changes":[1.6165493E-2,7.039169E-3,1.4520984E-2,0E0,0E0,0E0,0E0],"parents":[2147483647,0,0,1,1,2,2],"right_children":[2,4,6,-1,-1,-1,-1],"split_conditions":[-7.937936E-2,9.7294986E-1,-2.3584906E-2,7.3658215E-5,1.8431643E-5,1.598872E-5,-4.173915E-7],"split_indices":[13,1,2,0,0,0,0],"split_type":[0,0,0,0,0,0,0],"sum_hessian":[1.361E3,1.4E1,1.347E3,4E0,1E1,7.3E1,1.274E3],"tree_param":{"num_deleted":"0","num_feature":"21","num_nodes":"7","size_leaf_vector":"1"}},{"base_weights":[1.5158764E-4,1.976075E-2,-8.0248865E-4,5.8703525E-5,1.45609665E-5,-3.5602585E-7,-2.2913717E-5],"categories":[],"categories_nodes":[],"categories_segments":[],"categories_sizes":[],"default_left":[0,0,0,0,0,0,0],"id":21,"left_children":[1,3,5,-1,-1,-1,-1],"loss_changes":[2.5403477E-2,1.33075155E-2,1.224951E-2,0E0,0E0,0E0,0E0],"parents":[2147483647,0,0,1,1,2,2],"right_children":[2,4,6,-1,-1,-1,-1],"split_conditions":[-2.6500015E-2,-5.3393465E-2,2.6745914E-2,5.8703525E-5,1.45609665E-5,-3.5602585E-7,-2.2913717E-5],"split_indices":[2,11,2,0,0,0,0],"split_type":[0,0,0,0,0,0,0],"sum_hessian":[1.356E3,6.2E1,1.294E3,1E1,5.2E1,1.263E3,3.1E1],"tree_param":{"num_deleted":"0","num_feature":"21","num_nodes":"7","size_leaf_vector":"1"}},{"base_weights":[-5.978053E-5,1.8366767E-2,-1.0318427E-3,1.3035856E-5,5.262728E-5,-3.9196173E-5,-4.4214488E-7],"categories":[],"categories_nodes":[],"categories_segments":[],"categories_sizes":[],"default_left":[0,0,0,0,0,0,0],"id":22,"left_children":[1,3,5,-1,-1,-1,-1],"loss_changes":[2.3949048E-2,1.2380958E-2,2.7277783E-2,0E0,0E0,0E0,0E0],"parents":[2147483647,0,0,1,1,2,2],"right_children":[2,4,6,-1,-1,-1,-1],"split_conditions":[-2.5148166E-2,1.2264678E0,-7.0521295E-2,1.3035856E-5,5.262728E-5,-3.9196173E-5,-4.4214488E-7],"split_indices":[2,12,7,0,0,0,0],"split_type":[0,0,0,0,0,0,0],"sum_hessian":[1.335E3,6.6E1,1.269E3,5.4E1,1.2E1,2.3E1,1.246E3],"tree_param":{"num_deleted":"0","num_feature":"21","num_nodes":"7","size_leaf_vector":"1"}},{"base_weights":[9.718757E-4,-6.6634595E-2,1.2655382E-3,-1.0468314E-4,-3.529253E-5,5.162984E-5,9.99308E-7],"categories":[],"categories_nodes":[],"categories_segments":[],"categories_sizes":[],"default_left":[0,0,0,0,0,0,0],"id":23,"left_children":[1,3,5,-1,-1,-1,-1],"loss_changes":[2.7541697E-2,2.561286E-3,2.3520201E-2,0E0,0E0,0E0,0E0],"parents":[2147483647,0,0,1,1,2,2],"right_children":[2,4,6,-1,-1,-1,-1],"split_conditions":[-1.0013197E-1,1.1025525E0,-6.8822555E-2,-1.0468314E-4,-3.529253E-5,5.162984E-5,9.99308E-7],"split_indices":[7,8,3,0,0,0,0],"split_type":[0,0,0,0,0,0,0],"sum_hessian":[1.382E3,5E0,1.377E3,2E0,3E0,1.1E1,1.366E3],"tree_param":{"num_deleted":"0","num_feature":"21","num_nodes":"7","size_leaf_vector":"1"}},{"base_weights":[9.761558E-4,1.3518477E-3,-3.6099218E-2,2.2206772E-5,7.287782E-7,-8.868775E-5,-1.3199553E-5],"categories":[],"categories_nodes":[],"categories_segments":[],"categories_sizes":[],"default_left":[0,0,0,0,0,0,0],"id":24,"left_children":[1,3,5,-1,-1,-1,-1],"loss_changes":[1.9437853E-2,1.7804317E-2,1.3435729E-2,0E0,0E0,0E0,0E0],"parents":[2147483647,0,0,1,1,2,2],"right_children":[2,4,6,-1,-1,-1,-1],"split_conditions":[8.551802E-2,-2.8766869E-2,-7.0521295E-2,2.2206772E-5,7.287782E-7,-8.868775E-5,-1.3199553E-5],"split_indices":[0,2,7,0,0,0,0],"split_type":[0,0,0,0,0,0,0],"sum_hessian":[1.391E3,1.378E3,1.3E1,5.1E1,1.327E3,4E0,9E0],"tree_param":{"num_deleted":"0","num_feature":"21","num_nodes":"7","size_leaf_vector":"1"}},{"base_weights":[1.1066788E-4,5.1457324E-4,-3.352137E-2,1.3335145E-5,-3.4870448E-7,-6.193101E-5,1.1760659E-5],"categories":[],"categories_nodes":[],"categories_segments":[],"categories_sizes":[],"default_left":[0,0,0,0,0,0,0],"id":25,"left_children":[1,3,5,-1,-1,-1,-1],"loss_changes":[1.831511E-2,1.2246168E-2,1.5205089E-2,0E0,0E0,0E0,0E0],"parents":[2147483647,0,0,1,1,2,2],"right_children":[2,4,6,-1,-1,-1,-1],"split_conditions":[3.9973218E-2,-3.9079737E-2,3.5898625E-3,1.3335145E-5,-3.4870448E-7,-6.193101E-5,1.1760659E-5],"split_indices":[5,3,7,0,0,0,0],"split_type":[0,0,0,0,0,0,0],"sum_hessian":[1.346E3,1.331E3,1.5E1,9E1,1.241E3,1E1,5E0],"tree_param":{"num_deleted":"0","num_feature":"21","num_nodes":"7","size_leaf_vector":"1"}},{"base_weights":[-2.0361893E-4,2.1240216E-2,-1.3873737E-3,1.8511237E-5,6.654344E-5,-1.2834424E-6,-6.455864E-5],"categories":[],"categories_nodes":[],"categories_segments":[],"categories_sizes":[],"default_left":[0,0,0,0,0,0,0],"id":26,"left_children":[1,3,5,-1,-1,-1,-1],"loss_changes":[3.4450494E-2,1.2210138E-2,1.8441817E-2,0E0,0E0,0E0,0E0],"parents":[2147483647,0,0,1,1,2,2],"right_children":[2,4,6,-1,-1,-1,-1],"split_conditions":[-2.5148166E-2,1.7500156E0,1.07214086E-1,1.8511237E-5,6.654344E-5,-1.2834424E-6,-6.455864E-5],"split_indices":[2,10,0,0,0,0,0],"split_type":[0,0,0,0,0,0,0],"sum_hessian":[1.355E3,7E1,1.285E3,6.3E1,7E0,1.28E3,5E0],"tree_param":{"num_deleted":"0","num_feature":"21","num_nodes":"7","size_leaf_vector":"1"}},{"base_weights":[1.7374232E-4,2.5975151E-2,-8.2258525E-4,7.7928475E-5,1.9891471E-5,-3.5905092E-7,-4.4333035E-5],"categories":[],"categories_nodes":[],"categories_segments":[],"categories_sizes":[],"default_left":[0,0,0,0,0,0,0],"id":27,"left_children":[1,3,5,-1,-1,-1,-1],"loss_changes":[3.457111E-2,1.6863532E-2,2.5023874E-2,0E0,0E0,0E0,0E0],"parents":[2147483647,0,0,1,1,2,2],"right_children":[2,4,6,-1,-1,-1,-1],"split_conditions":[-2.8766869E-2,-5.3393465E-2,3.9973218E-2,7.7928475E-5,1.9891471E-5,-3.5905092E-7,-4.4333035E-5],"split_indices":[2,11,5,0,0,0,0],"split_type":[0,0,0,0,0,0,0],"sum_hessian":[1.343E3,4.9E1,1.294E3,7E0,4.2E1,1.278E3,1.6E1],"tree_param":{"num_deleted":"0","num_feature":"21","num_nodes":"7","size_leaf_vector":"1"}},{"base_weights":[6.6161307E-4,1.480361E-3,-1.0694665E-2,3.1914344E-5,1.332456E-6,-6.825374E-6,-6.196082E-5],"categories":[],"categories_nodes":[],"categories_segments":[],"categories_sizes":[],"default_left":[0,0,0,0,0,0,0],"id":28,"left_children":[1,3,5,-1,-1,-1,-1],"loss_changes":[1.2995741E-2,1.0694646E-2,1.8991487E-2,0E0,0E0,0E0,0E0],"parents":[2147483647,0,0,1,1,2,2],"right_children":[2,4,6,-1,-1,-1,-1],"split_conditions":[2.3224045E-2,-7.375355E-2,1.6854491E0,3.1914344E-5,1.332456E-6,-6.825374E-6,-6.196082E-5],"split_indices":[5,11,16,0,0,0,0],"split_type":[0,0,0,0,0,0,0],"sum_hessian":[1.395E3,1.302E3,9.3E1,1.4E1,1.288E3,8.5E1,8E0],"tree_param":{"num_deleted":"0","num_feature":"21","num_nodes":"7","size_leaf_vector":"1"}},{"base_weights":[-4.742305E-4,-2.0252012E-2,1.6894322E-4,-1.0294241E-5,-7.761736E-5,9.712346E-7,-1.27810945E-5],"categories":[],"categories_nodes":[],"categories_segments":[],"categories_sizes":[],"default_left":[0,0,0,0,0,0,0],"id":29,"left_children":[1,3,5,-1,-1,-1,-1],"loss_changes":[1.7366972E-2,2.2482991E-2,1.0321605E-2,0E0,0E0,0E0,0E0],"parents":[2147483647,0,0,1,1,2,2],"right_children":[2,4,6,-1,-1,-1,-1],"split_conditions":[-5.905649E-2,3.168336E-2,4.8626512E-2,-1.0294241E-5,-7.761736E-5,9.712346E-7,-1.27810945E-5],"split_indices":[7,5,9,0,0,0,0],"split_type":[0,0,0,0,0,0,0],"sum_hessian":[1.364E3,4.2E1,1.322E3,3.5E1,7E0,1.248E3,7.4E1],"tree_param":{"num_deleted":"0","num_feature":"21","num_nodes":"7","size_leaf_vector":"1"}},{"base_weights":[-3.3934694E-4,1.9931832E-2,-1.5119255E-3,1.937961E-5,6.456138E-5,-4.461462E-7,-2.057821E-5],"categories":[],"categories_nodes":[],"categories_segments":[],"categories_sizes":[],"default_left":[0,0,0,0,0,0,0],"id":30,"left_children":[1,3,5,-1,-1,-1,-1],"loss_changes":[3.2166567E-2,6.956434E-3,2.3718609E-2,0E0,0E0,0E0,0E0],"parents":[2147483647,0,0,1,1,2,2],"right_children":[2,4,6,-1,-1,-1,-1],"split_conditions":[-2.5148166E-2,3.498728E-2,2.4349751E-2,1.937961E-5,6.456138E-5,-4.461462E-7,-2.057821E-5],"split_indices":[2,4,5,0,0,0,0],"split_type":[0,0,0,0,0,0,0],"sum_hessian":[1.351E3,7.3E1,1.278E3,6.9E1,4E0,1.198E3,8E1],"tree_param":{"num_deleted":"0","num_feature":"21","num_nodes":"7","size_leaf_vector":"1"}},{"base_weights":[-1.8794229E-4,-6.423481E-4,2.3291094E-2,-1.9139752E-7,-2.9191353E-5,1.1154763E-5,5.9694714E-5],"categories":[],"categories_nodes":[],"categories_segments":[],"categories_sizes":[],"default_left":[0,0,0,0,0,0,0],"id":31,"left_children":[1,3,5,-1,-1,-1,-1],"loss_changes":[1.4610168E-2,1.5915826E-2,9.709103E-3,0E0,0E0,0E0,0E0],"parents":[2147483647,0,0,1,1,2,2],"right_children":[2,4,6,-1,-1,-1,-1],"split_conditions":[3.498728E-2,3.7455104E-2,1E0,-1.9139752E-7,-2.9191353E-5,1.1154763E-5,5.9694714E-5],"split_indices":[4,5,19,0,0,0,0],"split_type":[0,0,0,0,0,0,0],"sum_hessian":[1.367E3,1.342E3,2.5E1,1.318E3,2.4E1,1.8E1,7E0],"tree_param":{"num_deleted":"0","num_feature":"21","num_nodes":"7","size_leaf_vector":"1"}},{"base_weights":[-1.6555941E-4,1.9807575E-2,-8.272866E-4,3.6237117E-5,6.599408E-6,-2.8931989E-5,-2.8785445E-7],"categories":[],"categories_nodes":[],"categories_segments":[],"categories_sizes":[],"default_left":[0,0,0,0,0,0,0],"id":32,"left_children":[1,3,5,-1,-1,-1,-1],"loss_changes":[1.8546293E-2,7.393431E-3,1.9171514E-2,0E0,0E0,0E0,0E0],"parents":[2147483647,0,0,1,1,2,2],"right_children":[2,4,6,-1,-1,-1,-1],"split_conditions":[-2.8766869E-2,-1.6826523E-3,-6.70354E-2,3.6237117E-5,6.599408E-6,-2.8931989E-5,-2.8785445E-7],"split_indices":[2,7,7,0,0,0,0],"split_type":[0,0,0,0,0,0,0],"sum_hessian":[1.401E3,4.4E1,1.357E3,2.3E1,2.1E1,3E1,1.327E3],"tree_param":{"num_deleted":"0","num_feature":"21","num_nodes":"7","size_leaf_vector":"1"}},{"base_weights":[1.2978632E-4,9.215885E-4,-9.251272E-3,-2.8423556E-5,1.3625126E-6,7.869952E-5,-1.3054698E-5],"categories":[],"categories_nodes":[],"categories_segments":[],"categories_sizes":[],"default_left":[0,0,0,0,0,0,0],"id":33,"left_children":[1,3,5,-1,-1,-1,-1],"loss_changes":[9.92483E-3,8.802069E-3,1.88406E-2,0E0,0E0,0E0,0E0],"parents":[2147483647,0,0,1,1,2,2],"right_children":[2,4,6,-1,-1,-1,-1],"split_conditions":[2.2251027E-2,-8.588037E-2,-5.905649E-2,-2.8423556E-5,1.3625126E-6,7.869952E-5,-1.3054698E-5],"split_indices":[5,15,15,0,0,0,0],"split_type":[0,0,0,0,0,0,0],"sum_hessian":[1.334E3,1.231E3,1.03E2,1.2E1,1.219E3,2E0,1.01E2],"tree_param":{"num_deleted":"0","num_feature":"21","num_nodes":"7","size_leaf_vector":"1"}},{"base_weights":[7.292378E-4,1.7995393E-2,-3.8015534E-4,3.4470133E-5,9.799851E-6,3.4440785E-5,-7.551649E-7],"categories":[],"categories_nodes":[],"categories_segments":[],"categories_sizes":[],"default_left":[0,0,0,0,0,0,0],"id":34,"left_children":[1,3,5,-1,-1,-1,-1],"loss_changes":[2.665138E-2,9.422872E-3,1.1361132E-2,0E0,0E0,0E0,0E0],"parents":[2147483647,0,0,1,1,2,2],"right_children":[2,4,6,-1,-1,-1,-1],"split_conditions":[-3.9079737E-2,8.739817E-1,-8.588037E-2,3.4470133E-5,9.799851E-6,3.4440785E-5,-7.551649E-7],"split_indices":[3,14,13,0,0,0,0],"split_type":[0,0,0,0,0,0,0],"sum_hessian":[1.39E3,8.3E1,1.307E3,3.5E1,4.8E1,1.1E1,1.296E3],"tree_param":{"num_deleted":"0","num_feature":"21","num_nodes":"7","size_leaf_vector":"1"}},{"base_weights":[-5.1548885E-4,2.1763459E-2,-1.5669597E-3,5.032186E-5,1.4579917E-5,-6.7890306E-7,-1.9709316E-5],"categories":[],"categories_nodes":[],"categories_segments":[],"categories_sizes":[],"default_left":[0,0,0,0,0,0,0],"id":35,"left_children":[1,3,5,-1,-1,-1,-1],"loss_changes":[3.1705603E-2,1.16926655E-2,1.9733885E-2,0E0,0E0,0E0,0E0],"parents":[2147483647,0,0,1,1,2,2],"right_children":[2,4,6,-1,-1,-1,-1],"split_conditions":[-2.5806451E-2,-3.418808E-2,2.4826216E-2,5.032186E-5,1.4579917E-5,-6.7890306E-7,-1.9709316E-5],"split_indices":[2,11,5,0,0,0,0],"split_type":[0,0,0,0,0,0,0],"sum_hessian":[1.351E3,6E1,1.291E3,1.6E1,4.4E1,1.217E3,7.4E1],"tree_param":{"num_deleted":"0","num_feature":"21","num_nodes":"7","size_leaf_vector":"1"}},{"base_weights":[7.952436E-4,1.9769803E-2,1.03609236E-4,3.448089E-5,-1.3480379E-6,-6.818993E-5,2.7359658E-7],"categories":[],"categories_nodes":[],"categories_segments":[],"categories_sizes":[],"default_left":[0,0,0,0,0,0,0],"id":36,"left_children":[1,3,5,-1,-1,-1,-1],"loss_changes":[1.791147E-2,1.0610495E-2,1.0822078E-2,0E0,0E0,0E0,0E0],"parents":[2147483647,0,0,1,1,2,2],"right_children":[2,4,6,-1,-1,-1,-1],"split_conditions":[-2.7536232E-2,1.9882984E-2,-1.0013197E-1,3.448089E-5,-1.3480379E-6,-6.818993E-5,2.7359658E-7],"split_indices":[2,15,0,0,0,0,0],"split_type":[0,0,0,0,0,0,0],"sum_hessian":[1.364E3,4.7E1,1.317E3,3.1E1,1.6E1,2E0,1.315E3],"tree_param":{"num_deleted":"0","num_feature":"21","num_nodes":"7","size_leaf_vector":"1"}},{"base_weights":[1.8631872E-4,1.7310916E-2,-8.4288383E-4,1.5713822E-5,5.2713815E-5,-1.30487915E-5,-4.3458797E-7],"categories":[],"categories_nodes":[],"categories_segments":[],"categories_sizes":[],"default_left":[0,0,0,0,0,0,0],"id":37,"left_children":[1,3,5,-1,-1,-1,-1],"loss_changes":[2.4248524E-2,7.296622E-3,6.3516307E-3,0E0,0E0,0E0,0E0],"parents":[2147483647,0,0,1,1,2,2],"right_children":[2,4,6,-1,-1,-1,-1],"split_conditions":[-2.3584906E-2,1.5311716E0,-5.0338853E-2,1.5713822E-5,5.2713815E-5,-1.30487915E-5,-4.3458797E-7],"split_indices":[2,12,9,0,0,0,0],"split_type":[0,0,0,0,0,0,0],"sum_hessian":[1.374E3,7.7E1,1.297E3,7E1,7E0,5.3E1,1.244E3],"tree_param":{"num_deleted":"0","num_feature":"21","num_nodes":"7","size_leaf_vector":"1"}},{"base_weights":[1.6803488E-4,-1.1817768E-4,3.2257542E-2,3.897036E-7,-1.8692566E-5,-6.2170324E-7,7.4181975E-5],"categories":[],"categories_nodes":[],"categories_segments":[],"categories_sizes":[],"default_left":[0,0,0,0,0,0,0],"id":38,"left_children":[1,3,5,-1,-1,-1,-1],"loss_changes":[1.246707E-2,1.01070665E-2,1.2984286E-2,0E0,0E0,0E0,0E0],"parents":[2147483647,0,0,1,1,2,2],"right_children":[2,4,6,-1,-1,-1,-1],"split_conditions":[4.1221373E-2,4.9455155E-2,1.0573312E0,3.897036E-7,-1.8692566E-5,-6.2170324E-7,7.4181975E-5],"split_indices":[4,3,16,0,0,0,0],"split_type":[0,0,0,0,0,0,0],"sum_hessian":[1.356E3,1.345E3,1.1E1,1.309E3,3.6E1,6E0,5E0],"tree_param":{"num_deleted":"0","num_feature":"21","num_nodes":"7","size_leaf_vector":"1"}},{"base_weights":[1.5705187E-4,1.6572751E-2,-8.333438E-4,3.4548877E-5,7.2113485E-6,-1.1615076E-7,-1.867743E-5],"categories":[],"categories_nodes":[],"categories_segments":[],"categories_sizes":[],"default_left":[0,0,0,0,0,0,0],"id":39,"left_children":[1,3,5,-1,-1,-1,-1],"loss_changes":[2.228732E-2,1.0805851E-2,1.4722031E-2,0E0,0E0,0E0,0E0],"parents":[2147483647,0,0,1,1,2,2],"right_children":[2,4,6,-1,-1,-1,-1],"split_conditions":[-2.3584906E-2,-5.7251938E-2,4.4854883E-2,3.4548877E-5,7.2113485E-6,-1.1615076E-7,-1.867743E-5],"split_indices":[2,0,3,0,0,0,0],"split_type":[0,0,0,0,0,0,0],"sum_hessian":[1.369E3,7.7E1,1.292E3,3.2E1,4.5E1,1.235E3,5.7E1],"tree_param":{"num_deleted":"0","num_feature":"21","num_nodes":"7","size_leaf_vector":"1"}},{"base_weights":[-1.3591531E-4,1.951647E-2,-1.3346818E-3,1.684435E-5,6.7837056E-5,-7.429402E-7,-1.510172E-5],"categories":[],"categories_nodes":[],"categories_segments":[],"categories_sizes":[],"default_left":[0,0,0,0,0,0,0],"id":40,"left_children":[1,3,5,-1,-1,-1,-1],"loss_changes":[3.237203E-2,1.4065253E-2,1.0529442E-2,0E0,0E0,0E0,0E0],"parents":[2147483647,0,0,1,1,2,2],"right_children":[2,4,6,-1,-1,-1,-1],"split_conditions":[-2.5148166E-2,1.7718705E0,4.9970105E-2,1.684435E-5,6.7837056E-5,-7.429402E-7,-1.510172E-5],"split_indices":[2,10,9,0,0,0,0],"split_type":[0,0,0,0,0,0,0],"sum_hessian":[1.372E3,7.8E1,1.294E3,7.1E1,7E0,1.225E3,6.9E1],"tree_param":{"num_deleted":"0","num_feature":"21","num_nodes":"7","size_leaf_vector":"1"}},{"base_weights":[2.597484E-4,-6.52271E-5,2.946856E-2,1.1518998E-5,-7.369408E-7,7.4092575E-5,5.8736623E-6],"categories":[],"categories_nodes":[],"categories_segments":[],"categories_sizes":[],"default_left":[0,0,0,0,0,0,0],"id":41,"left_children":[1,3,5,-1,-1,-1,-1],"loss_changes":[1.29397195E-2,8.000794E-3,1.2647613E-2,0E0,0E0,0E0,0E0],"parents":[2147483647,0,0,1,1,2,2],"right_children":[2,4,6,-1,-1,-1,-1],"split_conditions":[4.1221373E-2,-4.1751117E-2,-5.3393465E-2,1.1518998E-5,-7.369408E-7,7.4092575E-5,5.8736623E-6],"split_indices":[4,3,0,0,0,0,0],"split_type":[0,0,0,0,0,0,0],"sum_hessian":[1.362E3,1.348E3,1.4E1,7.2E1,1.276E3,5E0,9E0],"tree_param":{"num_deleted":"0","num_feature":"21","num_nodes":"7","size_leaf_vector":"1"}},{"base_weights":[-3.0764166E-4,1.5290468E-2,-1.2163833E-3,6.597492E-5,1.1440093E-5,-3.3921086E-5,-8.7068986E-7],"categories":[],"categories_nodes":[],"categories_segments":[],"categories_sizes":[],"default_left":[0,0,0,0,0,0,0],"id":42,"left_children":[1,3,5,-1,-1,-1,-1],"loss_changes":[1.9310301E-2,1.6190043E-2,1.6588539E-2,0E0,0E0,0E0,0E0],"parents":[2147483647,0,0,1,1,2,2],"right_children":[2,4,6,-1,-1,-1,-1],"split_conditions":[-2.5148166E-2,-7.375355E-2,-7.0521295E-2,6.597492E-5,1.1440093E-5,-3.3921086E-5,-8.7068986E-7],"split_indices":[2,11,11,0,0,0,0],"split_type":[0,0,0,0,0,0,0],"sum_hessian":[1.36E3,7.4E1,1.286E3,7E0,6.7E1,1.9E1,1.267E3],"tree_param":{"num_deleted":"0","num_feature":"21","num_nodes":"7","size_leaf_vector":"1"}},{"base_weights":[7.377079E-5,1.4001627E-2,-8.123099E-4,1.1364721E-5,6.3363164E-5,-2.4983132E-7,-1.323349E-5],"categories":[],"categories_nodes":[],"categories_segments":[],"categories_sizes":[],"default_left":[0,0,0,0,0,0,0],"id":43,"left_children":[1,3,5,-1,-1,-1,-1],"loss_changes":[1.6918825E-2,1.3174564E-2,8.259073E-3,0E0,0E0,0E0,0E0],"parents":[2147483647,0,0,1,1,2,2],"right_children":[2,4,6,-1,-1,-1,-1],"split_conditions":[-3.9079737E-2,1.7718705E0,4.8626512E-2,1.1364721E-5,6.3363164E-5,-2.4983132E-7,-1.323349E-5],"split_indices":[3,10,9,0,0,0,0],"split_type":[0,0,0,0,0,0,0],"sum_hessian":[1.369E3,8.1E1,1.288E3,7.5E1,6E0,1.222E3,6.6E1],"tree_param":{"num_deleted":"0","num_feature":"21","num_nodes":"7","size_leaf_vector":"1"}},{"base_weights":[-1.033134E-5,2.038658E-2,-8.755496E-4,1.6617656E-5,7.3197974E-5,-3.6128004E-5,-4.3579817E-7],"categories":[],"categories_nodes":[],"categories_segments":[],"categories_sizes":[],"default_left":[0,0,0,0,0,0,0],"id":44,"left_children":[1,3,5,-1,-1,-1,-1],"loss_changes":[2.3418806E-2,1.2791991E-2,1.9344073E-2,0E0,0E0,0E0,0E0],"parents":[2147483647,0,0,1,1,2,2],"right_children":[2,4,6,-1,-1,-1,-1],"split_conditions":[-2.7536232E-2,2.437373E-2,-7.375355E-2,1.6617656E-5,7.3197974E-5,-3.6128004E-5,-4.3579817E-7],"split_indices":[2,4,7,0,0,0,0],"split_type":[0,0,0,0,0,0,0],"sum_hessian":[1.325E3,5.3E1,1.272E3,4.8E1,5E0,1.9E1,1.253E3],"tree_param":{"num_deleted":"0","num_feature":"21","num_nodes":"7","size_leaf_vector":"1"}},{"base_weights":[-5.152677E-4,1.7565873E-2,-1.4746762E-3,1.2838634E-5,4.4449596E-5,-1.2593097E-6,-3.957664E-5],"categories":[],"categories_nodes":[],"categories_segments":[],"categories_sizes":[],"default_left":[0,0,0,0,0,0,0],"id":45,"left_children":[1,3,5,-1,-1,-1,-1],"loss_changes":[2.340993E-2,8.744309E-3,1.5680132E-2,0E0,0E0,0E0,0E0],"parents":[2147483647,0,0,1,1,2,2],"right_children":[2,4,6,-1,-1,-1,-1],"split_conditions":[-2.5148166E-2,1.788109E-2,3.9973218E-2,1.2838634E-5,4.4449596E-5,-1.2593097E-6,-3.957664E-5],"split_indices":[2,4,5,0,0,0,0],"split_type":[0,0,0,0,0,0,0],"sum_hessian":[1.347E3,6.7E1,1.28E3,5.3E1,1.4E1,1.267E3,1.3E1],"tree_param":{"num_deleted":"0","num_feature":"21","num_nodes":"7","size_leaf_vector":"1"}},{"base_weights":[6.281677E-4,1.4105587E-2,-2.4450678E-4,4.975521E-5,1.0301724E-5,3.621129E-5,-5.89814E-7],"categories":[],"categories_nodes":[],"categories_segments":[],"categories_sizes":[],"default_left":[0,0,0,0,0,0,0],"id":46,"left_children":[1,3,5,-1,-1,-1,-1],"loss_changes":[1.6245943E-2,1.2177544E-2,1.1394075E-2,0E0,0E0,0E0,0E0],"parents":[2147483647,0,0,1,1,2,2],"right_children":[2,4,6,-1,-1,-1,-1],"split_conditions":[-2.3584906E-2,-5.3393465E-2,-8.588037E-2,4.975521E-5,1.0301724E-5,3.621129E-5,-5.89814E-7],"split_indices":[2,11,13,0,0,0,0],"split_type":[0,0,0,0,0,0,0],"sum_hessian":[1.38E3,8.3E1,1.297E3,1.1E1,7.2E1,1E1,1.287E3],"tree_param":{"num_deleted":"0","num_feature":"21","num_nodes":"7","size_leaf_vector":"1"}},{"base_weights":[-1.4627007E-4,1.4861155E-2,-1.0584644E-3,7.4777126E-6,3.1605912E-5,3.9765968E-5,-1.3917557E-6],"categories":[],"categories_nodes":[],"categories_segments":[],"categories_sizes":[],"default_left":[0,0,0,0,0,0,0],"id":47,"left_children":[1,3,5,-1,-1,-1,-1],"loss_changes":[1.9112848E-2,8.37511E-3,7.803127E-3,0E0,0E0,0E0,0E0],"parents":[2147483647,0,0,1,1,2,2],"right_children":[2,4,6,-1,-1,-1,-1],"split_conditions":[-2.3584906E-2,1.139121E0,-1.0013197E-1,7.4777126E-6,3.1605912E-5,3.9765968E-5,-1.3917557E-6],"split_indices":[2,8,13,0,0,0,0],"split_type":[0,0,0,0,0,0,0],"sum_hessian":[1.394E3,7.9E1,1.315E3,4.9E1,3E1,5E0,1.31E3],"tree_param":{"num_deleted":"0","num_feature":"21","num_nodes":"7","size_leaf_vector":"1"}},{"base_weights":[9.008552E-4,1.6836578E-2,-9.895571E-5,1.2914346E-5,5.7236506E-5,3.1539474E-7,-2.4526733E-5],"categories":[],"categories_nodes":[],"categories_segments":[],"categories_sizes":[],"default_left":[0,0,0,0,0,0,0],"id":48,"left_children":[1,3,5,-1,-1,-1,-1],"loss_changes":[2.1590488E-2,1.4124844E-2,1.0292311E-2,0E0,0E0,0E0,0E0],"parents":[2147483647,0,0,1,1,2,2],"right_children":[2,4,6,-1,-1,-1,-1],"split_conditions":[-3.9079737E-2,1.8018018E-2,3.9973218E-2,1.2914346E-5,5.7236506E-5,3.1539474E-7,-2.4526733E-5],"split_indices":[3,4,5,0,0,0,0],"split_type":[0,0,0,0,0,0,0],"sum_hessian":[1.354E3,7.9E1,1.275E3,6.9E1,1E1,1.254E3,2.1E1],"tree_param":{"num_deleted":"0","num_feature":"21","num_nodes":"7","size_leaf_vector":"1"}},{"base_weights":[-6.659901E-4,2.9534018E-2,-1.1301177E-3,8.1368635E-5,1.7607697E-5,-9.927966E-8,-2.1425536E-5],"categories":[],"categories_nodes":[],"categories_segments":[],"categories_sizes":[],"default_left":[0,0,0,0,0,0,0],"id":49,"left_children":[1,3,5,-1,-1,-1,-1],"loss_changes":[1.9446447E-2,1.1283571E-2,2.5177928E-2,0E0,0E0,0E0,0E0],"parents":[2147483647,0,0,1,1,2,2],"right_children":[2,4,6,-1,-1,-1,-1],"split_conditions":[-7.937936E-2,-5.3393465E-2,2.4349751E-2,8.1368635E-5,1.7607697E-5,-9.927966E-8,-2.1425536E-5],"split_indices":[13,11,5,0,0,0,0],"split_type":[0,0,0,0,0,0,0],"sum_hessian":[1.384E3,2E1,1.364E3,4E0,1.6E1,1.289E3,7.5E1],"tree_param":{"num_deleted":"0","num_feature":"21","num_nodes":"7","size_leaf_vector":"1"}},{"base_weights":[7.382831E-4,9.19449E-3,-3.7189422E-4,4.6092442E-5,8.304884E-6,-3.14628E-5,1.2642278E-8],"categories":[],"categories_nodes":[],"categories_segments":[],"categories_sizes":[],"default_left":[0,0,0,0,0,0,0],"id":50,"left_children":[1,3,5,-1,-1,-1,-1],"loss_changes":[1.3024421E-2,9.278157E-3,1.2811321E-2,0E0,0E0,0E0,0E0],"parents":[2147483647,0,0,1,1,2,2],"right_children":[2,4,6,-1,-1,-1,-1],"split_conditions":[-3.3774316E-2,-7.0521295E-2,-7.0521295E-2,4.6092442E-5,8.304884E-6,-3.14628E-5,1.2642278E-8],"split_indices":[0,11,11,0,0,0,0],"split_type":[0,0,0,0,0,0,0],"sum_hessian":[1.386E3,1.6E2,1.226E3,8E0,1.52E2,1.6E1,1.21E3],"tree_param":{"num_deleted":"0","num_feature":"21","num_nodes":"7","size_leaf_vector":"1"}},{"base_weights":[-1.718794E-4,2.0488935E-2,-1.1214934E-3,5.7084567E-6,3.9118528E-5,-7.6193794E-7,-3.179061E-5],"categories":[],"categories_nodes":[],"categories_segments":[],"categories_sizes":[],"default_left":[0,0,0,0,0,0,0],"id":51,"left_children":[1,3,5,-1,-1,-1,-1],"loss_changes":[2.7235638E-2,1.2918951E-2,1.6066466E-2,0E0,0E0,0E0,0E0],"parents":[2147483647,0,0,1,1,2,2],"right_children":[2,4,6,-1,-1,-1,-1],"split_conditions":[-2.6500015E-2,5E-1,3.9973218E-2,5.7084567E-6,3.9118528E-5,-7.6193794E-7,-3.179061E-5],"split_indices":[2,19,5,0,0,0,0],"split_type":[0,0,0,0,0,0,0],"sum_hessian":[1.386E3,6E1,1.326E3,2.9E1,3.1E1,1.305E3,2.1E1],"tree_param":{"num_deleted":"0","num_feature":"21","num_nodes":"7","size_leaf_vector":"1"}},{"base_weights":[-1.2413999E-3,1.3454843E-2,-2.2363847E-3,7.456357E-6,2.6564529E-5,3.539426E-5,-2.936699E-6],"categories":[],"categories_nodes":[],"categories_segments":[],"categories_sizes":[],"default_left":[0,0,0,0,0,0,0],"id":52,"left_children":[1,3,5,-1,-1,-1,-1],"loss_changes":[1.9829005E-2,5.7128826E-3,1.4577585E-2,0E0,0E0,0E0,0E0],"parents":[2147483647,0,0,1,1,2,2],"right_children":[2,4,6,-1,-1,-1,-1],"split_conditions":[-2.3584906E-2,9.836544E-1,-8.588037E-2,7.456357E-6,2.6564529E-5,3.539426E-5,-2.936699E-6],"split_indices":[2,14,13,0,0,0,0],"split_type":[0,0,0,0,0,0,0],"sum_hessian":[1.353E3,8.5E1,1.268E3,5.1E1,3.4E1,1.2E1,1.256E3],"tree_param":{"num_deleted":"0","num_feature":"21","num_nodes":"7","size_leaf_vector":"1"}},{"base_weights":[4.426614E-6,1.1314074E-2,-1.2836709E-3,5.8377398E-5,9.706684E-6,-4.2118783E-5,-7.933261E-7],"categories":[],"categories_nodes":[],"categories_segments":[],"categories_sizes":[],"default_left":[0,0,0,0,0,0,0],"id":53,"left_children":[1,3,5,-1,-1,-1,-1],"loss_changes":[2.0089129E-2,1.5275754E-2,2.5919724E-2,0E0,0E0,0E0,0E0],"parents":[2147483647,0,0,1,1,2,2],"right_children":[2,4,6,-1,-1,-1,-1],"split_conditions":[-3.418808E-2,-7.0521295E-2,-7.375355E-2,5.8377398E-5,9.706684E-6,-4.2118783E-5,-7.933261E-7],"split_indices":[0,11,7,0,0,0,0],"split_type":[0,0,0,0,0,0,0],"sum_hessian":[1.377E3,1.4E2,1.237E3,8E0,1.32E2,1.9E1,1.218E3],"tree_param":{"num_deleted":"0","num_feature":"21","num_nodes":"7","size_leaf_vector":"1"}},{"base_weights":[5.082323E-4,1.5617961E-2,-3.8907907E-4,7.550445E-6,3.0137715E-5,-6.812584E-5,-2.8790387E-7],"categories":[],"categories_nodes":[],"categories_segments":[],"categories_sizes":[],"default_left":[0,0,0,0,0,0,0],"id":54,"left_children":[1,3,5,-1,-1,-1,-1],"loss_changes":[1.8865438E-2,7.430682E-3,1.0624992E-2,0E0,0E0,0E0,0E0],"parents":[2147483647,0,0,1,1,2,2],"right_children":[2,4,6,-1,-1,-1,-1],"split_conditions":[-2.5148166E-2,5E-1,-1.0013197E-1,7.550445E-6,3.0137715E-5,-6.812584E-5,-2.8790387E-7],"split_indices":[2,19,0,0,0,0,0],"split_type":[0,0,0,0,0,0,0],"sum_hessian":[1.39E3,7.7E1,1.313E3,4.3E1,3.4E1,2E0,1.311E3],"tree_param":{"num_deleted":"0","num_feature":"21","num_nodes":"7","size_leaf_vector":"1"}},{"base_weights":[-6.064368E-4,1.9856296E-2,-1.490265E-3,4.3616896E-5,7.113774E-6,-1.2757401E-6,-4.0855495E-5],"categories":[],"categories_nodes":[],"categories_segments":[],"categories_sizes":[],"default_left":[0,0,0,0,0,0,0],"id":55,"left_children":[1,3,5,-1,-1,-1,-1],"loss_changes":[2.489721E-2,1.40729975E-2,1.6735783E-2,0E0,0E0,0E0,0E0],"parents":[2147483647,0,0,1,1,2,2],"right_children":[2,4,6,-1,-1,-1,-1],"split_conditions":[-5.7251938E-2,8.739817E-1,8.551802E-2,4.3616896E-5,7.113774E-6,-1.2757401E-6,-4.0855495E-5],"split_indices":[0,14,0,0,0,0,0],"split_type":[0,0,0,0,0,0,0],"sum_hessian":[1.374E3,5.6E1,1.318E3,2.3E1,3.3E1,1.305E3,1.3E1],"tree_param":{"num_deleted":"0","num_feature":"21","num_nodes":"7","size_leaf_vector":"1"}},{"base_weights":[-4.952239E-4,1.617447E-2,-1.614736E-3,1.33675485E-5,7.42054E-5,-1.0401423E-4,-1.6000446E-6],"categories":[],"categories_nodes":[],"categories_segments":[],"categories_sizes":[],"default_left":[0,0,0,0,0,0,0],"id":56,"left_children":[1,3,5,-1,-1,-1,-1],"loss_changes":[2.5798233E-2,1.8136729E-2,2.4212994E-2,0E0,0E0,0E0,0E0],"parents":[2147483647,0,0,1,1,2,2],"right_children":[2,4,6,-1,-1,-1,-1],"split_conditions":[-2.3584906E-2,1.7500156E0,-1.0013197E-1,1.33675485E-5,7.42054E-5,-1.0401423E-4,-1.6000446E-6],"split_indices":[2,10,7,0,0,0,0],"split_type":[0,0,0,0,0,0,0],"sum_hessian":[1.38E3,8.6E1,1.294E3,8E1,6E0,2E0,1.292E3],"tree_param":{"num_deleted":"0","num_feature":"21","num_nodes":"7","size_leaf_vector":"1"}},{"base_weights":[-6.7177357E-4,1.5403978E-4,-1.30511625E-2,-1.7457934E-6,3.95552E-6,-2.6526805E-5,2.2514676E-5],"categories":[],"categories_nodes":[],"categories_segments":[],"categories_sizes":[],"default_left":[0,0,0,0,0,0,0],"id":57,"left_children":[1,3,5,-1,-1,-1,-1],"loss_changes":[1.4058723E-2,7.2317817E-3,2.9386647E-2,0E0,0E0,0E0,0E0],"parents":[2147483647,0,0,1,1,2,2],"right_children":[2,4,6,-1,-1,-1,-1],"split_conditions":[2.4349751E-2,1.0384574E0,1E0,-1.7457934E-6,3.95552E-6,-2.6526805E-5,2.2514676E-5],"split_indices":[5,8,18,0,0,0,0],"split_type":[0,0,0,0,0,0,0],"sum_hessian":[1.374E3,1.289E3,8.5E1,8.55E2,4.34E2,6.5E1,2E1],"tree_param":{"num_deleted":"0","num_feature":"21","num_nodes":"7","size_leaf_vector":"1"}},{"base_weights":[-7.8601594E-4,1.42750945E-2,-1.7108261E-3,3.5252735E-5,8.893659E-6,-4.8688093E-5,-1.5119767E-6],"categories":[],"categories_nodes":[],"categories_segments":[],"categories_sizes":[],"default_left":[0,0,0,0,0,0,0],"id":58,"left_children":[1,3,5,-1,-1,-1,-1],"loss_changes":[1.9259911E-2,8.387096E-3,2.0408237E-2,0E0,0E0,0E0,0E0],"parents":[2147483647,0,0,1,1,2,2],"right_children":[2,4,6,-1,-1,-1,-1],"split_conditions":[-2.3584906E-2,7.973129E-1,-8.588037E-2,3.5252735E-5,8.893659E-6,-4.8688093E-5,-1.5119767E-6],"split_indices":[2,16,7,0,0,0,0],"split_type":[0,0,0,0,0,0,0],"sum_hessian":[1.38E3,7.9E1,1.301E3,2.1E1,5.8E1,1.1E1,1.29E3],"tree_param":{"num_deleted":"0","num_feature":"21","num_nodes":"7","size_leaf_vector":"1"}},{"base_weights":[3.2888026E-6,1.6201539E-2,-9.2473836E-4,5.9985254E-5,1.3436262E-5,-1.6938553E-5,-4.5147678E-7],"categories":[],"categories_nodes":[],"categories_segments":[],"categories_sizes":[],"default_left":[0,0,0,0,0,0,0],"id":59,"left_children":[1,3,5,-1,-1,-1,-1],"loss_changes":[2.1361012E-2,1.1740679E-2,9.898942E-3,0E0,0E0,0E0,0E0],"parents":[2147483647,0,0,1,1,2,2],"right_children":[2,4,6,-1,-1,-1,-1],"split_conditions":[-2.5148166E-2,-7.375355E-2,-5.7251938E-2,5.9985254E-5,1.3436262E-5,-1.6938553E-5,-4.5147678E-7],"split_indices":[2,11,11,0,0,0,0],"split_type":[0,0,0,0,0,0,0],"sum_hessian":[1.419E3,7.6E1,1.343E3,7E0,6.9E1,4.8E1,1.295E3],"tree_param":{"num_deleted":"0","num_feature":"21","num_nodes":"7","size_leaf_vector":"1"}},{"base_weights":[1.2859441E-3,1.8589303E-2,5.970599E-4,5.190345E-6,3.5765494E-5,1.5014839E-6,-1.2659706E-5],"categories":[],"categories_nodes":[],"categories_segments":[],"categories_sizes":[],"default_left":[0,0,0,0,0,0,0],"id":60,"left_children":[1,3,5,-1,-1,-1,-1],"loss_changes":[1.6188195E-2,9.212172E-3,1.1073444E-2,0E0,0E0,0E0,0E0],"parents":[2147483647,0,0,1,1,2,2],"right_children":[2,4,6,-1,-1,-1,-1],"split_conditions":[-2.8766869E-2,5E-1,2.4349751E-2,5.190345E-6,3.5765494E-5,1.5014839E-6,-1.2659706E-5],"split_indices":[2,19,5,0,0,0,0],"split_type":[0,0,0,0,0,0,0],"sum_hessian":[1.358E3,5.1E1,1.307E3,2.5E1,2.6E1,1.232E3,7.5E1],"tree_param":{"num_deleted":"0","num_feature":"21","num_nodes":"7","size_leaf_vector":"1"}},{"base_weights":[-1.6077404E-4,1.0763851E-2,-9.440201E-4,4.5696135E-5,7.1502395E-6,2.5576886E-5,-1.3678106E-6],"categories":[],"categories_nodes":[],"categories_segments":[],"categories_sizes":[],"default_left":[0,0,0,0,0,0,0],"id":61,"left_children":[1,3,5,-1,-1,-1,-1],"loss_changes":[1.1767025E-2,1.1863812E-2,7.7539617E-3,0E0,0E0,0E0,0E0],"parents":[2147483647,0,0,1,1,2,2],"right_children":[2,4,6,-1,-1,-1,-1],"split_conditions":[-3.9079737E-2,-4.4856004E-2,-8.588037E-2,4.5696135E-5,7.1502395E-6,2.5576886E-5,-1.3678106E-6],"split_indices":[3,11,13,0,0,0,0],"split_type":[0,0,0,0,0,0,0],"sum_hessian":[1.373E3,9.1E1,1.282E3,1.1E1,8E1,1.3E1,1.269E3],"tree_param":{"num_deleted":"0","num_feature":"21","num_nodes":"7","size_leaf_vector":"1"}},{"base_weights":[8.5910375E-5,2.1850482E-2,-1.1422519E-3,6.587529E-5,1.640617E-5,-7.44727E-5,-1.0119155E-6],"categories":[],"categories_nodes":[],"categories_segments":[],"categories_sizes":[],"default_left":[0,0,0,0,0,0,0],"id":62,"left_children":[1,3,5,-1,-1,-1,-1],"loss_changes":[3.6030844E-2,1.8457625E-2,2.0730522E-2,0E0,0E0,0E0,0E0],"parents":[2147483647,0,0,1,1,2,2],"right_children":[2,4,6,-1,-1,-1,-1],"split_conditions":[-2.5148166E-2,-5.3393465E-2,-1.0013197E-1,6.587529E-5,1.640617E-5,-7.44727E-5,-1.0119155E-6],"split_indices":[2,11,7,0,0,0,0],"split_type":[0,0,0,0,0,0,0],"sum_hessian":[1.346E3,7.1E1,1.275E3,1.1E1,6E1,4E0,1.271E3],"tree_param":{"num_deleted":"0","num_feature":"21","num_nodes":"7","size_leaf_vector":"1"}},{"base_weights":[-3.9653192E-4,2.8318552E-2,-1.0640271E-3,6.387087E-5,1.4141243E-5,-2.624137E-7,-1.71273E-5],"categories":[],"categories_nodes":[],"categories_segments":[],"categories_sizes":[],"default_left":[0,0,0,0,0,0,0],"id":63,"left_children":[1,3,5,-1,-1,-1,-1],"loss_changes":[2.6154999E-2,1.2993712E-2,1.5528397E-2,0E0,0E0,0E0,0E0],"parents":[2147483647,0,0,1,1,2,2],"right_children":[2,4,6,-1,-1,-1,-1],"split_conditions":[-5.348561E-2,8.4689736E-1,2.4826216E-2,6.387087E-5,1.4141243E-5,-2.624137E-7,-1.71273E-5],"split_indices":[3,14,5,0,0,0,0],"split_type":[0,0,0,0,0,0,0],"sum_hessian":[1.362E3,3E1,1.332E3,1E1,2E1,1.258E3,7.4E1],"tree_param":{"num_deleted":"0","num_feature":"21","num_nodes":"7","size_leaf_vector":"1"}},{"base_weights":[-3.8091978E-4,1.812568E-2,-1.1958311E-3,5.109028E-5,1.4623353E-5,4.4534424E-8,-1.2769147E-5],"categories":[],"categories_nodes":[],"categories_segments":[],"categories_sizes":[],"default_left":[0,0,0,0,0,0,0],"id":64,"left_children":[1,3,5,-1,-1,-1,-1],"loss_changes":[2.0381346E-2,7.476665E-3,1.6010951E-2,0E0,0E0,0E0,0E0],"parents":[2147483647,0,0,1,1,2,2],"right_children":[2,4,6,-1,-1,-1,-1],"split_conditions":[-2.6500015E-2,-2.5446666E-2,1.3720407E0,5.109028E-5,1.4623353E-5,4.4534424E-8,-1.2769147E-5],"split_indices":[2,13,1,0,0,0,0],"split_type":[0,0,0,0,0,0,0],"sum_hessian":[1.349E3,5.6E1,1.293E3,8E0,4.8E1,1.152E3,1.41E2],"tree_param":{"num_deleted":"0","num_feature":"21","num_nodes":"7","size_leaf_vector":"1"}},{"base_weights":[6.480414E-5,1.7385662E-2,-1.0320107E-3,6.0134378E-5,1.4621643E-5,-3.9374292E-5,-8.1712636E-7],"categories":[],"categories_nodes":[],"categories_segments":[],"categories_sizes":[],"default_left":[0,0,0,0,0,0,0],"id":65,"left_children":[1,3,5,-1,-1,-1,-1],"loss_changes":[2.6158877E-2,1.252239E-2,1.3632569E-2,0E0,0E0,0E0,0E0],"parents":[2147483647,0,0,1,1,2,2],"right_children":[2,4,6,-1,-1,-1,-1],"split_conditions":[-2.3584906E-2,-7.375355E-2,-8.588037E-2,6.0134378E-5,1.4621643E-5,-3.9374292E-5,-8.1712636E-7],"split_indices":[2,11,7,0,0,0,0],"split_type":[0,0,0,0,0,0,0],"sum_hessian":[1.375E3,8.1E1,1.294E3,8E0,7.3E1,1.1E1,1.283E3],"tree_param":{"num_deleted":"0","num_feature":"21","num_nodes":"7","size_leaf_vector":"1"}},{"base_weights":[8.9437095E-4,2.154419E-2,-2.6677703E-4,1.6161353E-5,5.5812045E-5,2.8854181E-8,-3.3208344E-5],"categories":[],"categories_nodes":[],"categories_segments":[],"categories_sizes":[],"default_left":[0,0,0,0,0,0,0],"id":66,"left_children":[1,3,5,-1,-1,-1,-1],"loss_changes":[3.2878898E-2,1.404563E-2,1.0966921E-2,0E0,0E0,0E0,0E0],"parents":[2147483647,0,0,1,1,2,2],"right_children":[2,4,6,-1,-1,-1,-1],"split_conditions":[-2.5148166E-2,1.2105485E0,8.551802E-2,1.6161353E-5,5.5812045E-5,2.8854181E-8,-3.3208344E-5],"split_indices":[2,12,0,0,0,0,0],"split_type":[0,0,0,0,0,0,0],"sum_hessian":[1.37E3,7.2E1,1.298E3,5.8E1,1.4E1,1.286E3,1.2E1],"tree_param":{"num_deleted":"0","num_feature":"21","num_nodes":"7","size_leaf_vector":"1"}},{"base_weights":[1.0903423E-4,3.287784E-2,-1.8559852E-4,7.016474E-6,5.815948E-5,1.3153547E-5,-1.1420924E-6],"categories":[],"categories_nodes":[],"categories_segments":[],"categories_sizes":[],"default_left":[0,0,0,0,0,0,0],"id":67,"left_children":[1,3,5,-1,-1,-1,-1],"loss_changes":[1.3001415E-2,5.5205626E-3,1.2821577E-2,0E0,0E0,0E0,0E0],"parents":[2147483647,0,0,1,1,2,2],"right_children":[2,4,6,-1,-1,-1,-1],"split_conditions":[-8.588037E-2,-1.5636424E-2,-3.9079737E-2,7.016474E-6,5.815948E-5,1.3153547E-5,-1.1420924E-6],"split_indices":[13,0,3,0,0,0,0],"split_type":[0,0,0,0,0,0,0],"sum_hessian":[1.345E3,1.1E1,1.334E3,5E0,6E0,8.6E1,1.248E3],"tree_param":{"num_deleted":"0","num_feature":"21","num_nodes":"7","size_leaf_vector":"1"}},{"base_weights":[1.5627067E-4,1.8354874E-2,-1.038353E-3,5.6283643E-5,1.372815E-5,4.9645692E-5,-1.5367867E-6],"categories":[],"categories_nodes":[],"categories_segments":[],"categories_sizes":[],"default_left":[0,0,0,0,0,0,0],"id":68,"left_children":[1,3,5,-1,-1,-1,-1],"loss_changes":[2.999918E-2,1.6040215E-2,1.805897E-2,0E0,0E0,0E0,0E0],"parents":[2147483647,0,0,1,1,2,2],"right_children":[2,4,6,-1,-1,-1,-1],"split_conditions":[-2.3584906E-2,-4.4856004E-2,-8.588037E-2,5.6283643E-5,1.372815E-5,4.9645692E-5,-1.5367867E-6],"split_indices":[2,11,13,0,0,0,0],"split_type":[0,0,0,0,0,0,0],"sum_hessian":[1.378E3,8.4E1,1.294E3,1.3E1,7.1E1,8E0,1.286E3],"tree_param":{"num_deleted":"0","num_feature":"21","num_nodes":"7","size_leaf_vector":"1"}},{"base_weights":[-4.307781E-4,2.0856073E-2,-1.1878856E-3,1.4216478E-5,5.1152478E-5,-5.9043134E-7,-1.3763131E-5],"categories":[],"categories_nodes":[],"categories_segments":[],"categories_sizes":[],"default_left":[0,0,0,0,0,0,0],"id":69,"left_children":[1,3,5,-1,-1,-1,-1],"loss_changes":[2.2523317E-2,9.109473E-3,9.835479E-3,0E0,0E0,0E0,0E0],"parents":[2147483647,0,0,1,1,2,2],"right_children":[2,4,6,-1,-1,-1,-1],"split_conditions":[-4.6909902E-2,1E0,2.4349751E-2,1.4216478E-5,5.1152478E-5,-5.9043134E-7,-1.3763131E-5],"split_indices":[3,18,5,0,0,0,0],"split_type":[0,0,0,0,0,0,0],"sum_hessian":[1.395E3,4.7E1,1.348E3,3.6E1,1.1E1,1.271E3,7.7E1],"tree_param":{"num_deleted":"0","num_feature":"21","num_nodes":"7","size_leaf_vector":"1"}},{"base_weights":[-1.9913352E-4,-5.1587913E-4,3.5187386E-2,-2.5147102E-7,-2.8367984E-5,5.5457404E-6,7.365845E-5],"categories":[],"categories_nodes":[],"categories_segments":[],"categories_sizes":[],"default_left":[0,0,0,0,0,0,0],"id":70,"left_children":[1,3,5,-1,-1,-1,-1],"loss_changes":[1.5160868E-2,9.640027E-3,1.041881E-2,0E0,0E0,0E0,0E0],"parents":[2147483647,0,0,1,1,2,2],"right_children":[2,4,6,-1,-1,-1,-1],"split_conditions":[4.1221373E-2,3.9973218E-2,1.0573312E0,-2.5147102E-7,-2.8367984E-5,5.5457404E-6,7.365845E-5],"split_indices":[4,5,16,0,0,0,0],"split_type":[0,0,0,0,0,0,0],"sum_hessian":[1.35E3,1.339E3,1.1E1,1.324E3,1.5E1,6E0,5E0],"tree_param":{"num_deleted":"0","num_feature":"21","num_nodes":"7","size_leaf_vector":"1"}},{"base_weights":[-2.3317512E-4,1.7835278E-2,-1.2007026E-3,6.6531196E-5,1.3269716E-5,-5.862339E-7,-1.947562E-5],"categories":[],"categories_nodes":[],"categories_segments":[],"categories_sizes":[],"default_left":[0,0,0,0,0,0,0],"id":71,"left_children":[1,3,5,-1,-1,-1,-1],"loss_changes":[2.407627E-2,1.6883768E-2,1.4247396E-2,0E0,0E0,0E0,0E0],"parents":[2147483647,0,0,1,1,2,2],"right_children":[2,4,6,-1,-1,-1,-1],"split_conditions":[-2.5806451E-2,-7.375355E-2,4.259596E-2,6.6531196E-5,1.3269716E-5,-5.862339E-7,-1.947562E-5],"split_indices":[2,11,3,0,0,0,0],"split_type":[0,0,0,0,0,0,0],"sum_hessian":[1.375E3,6.9E1,1.306E3,8E0,6.1E1,1.253E3,5.3E1],"tree_param":{"num_deleted":"0","num_feature":"21","num_nodes":"7","size_leaf_vector":"1"}},{"base_weights":[-1.13480455E-4,1.9917449E-2,-1.1295665E-3,2.1546898E-6,2.975428E-5,-3.9257233E-5,-7.827781E-7],"categories":[],"categories_nodes":[],"categories_segments":[],"categories_sizes":[],"default_left":[0,0,0,0,0,0,0],"id":72,"left_children":[1,3,5,-1,-1,-1,-1],"loss_changes":[2.7824895E-2,7.3441975E-3,1.9156553E-2,0E0,0E0,0E0,0E0],"parents":[2147483647,0,0,1,1,2,2],"right_children":[2,4,6,-1,-1,-1,-1],"split_conditions":[-2.5148166E-2,8.286917E-1,-7.0521295E-2,2.1546898E-6,2.975428E-5,-3.9257233E-5,-7.827781E-7],"split_indices":[2,12,11,0,0,0,0],"split_type":[0,0,0,0,0,0,0],"sum_hessian":[1.365E3,6.5E1,1.3E3,1.7E1,4.8E1,1.6E1,1.284E3],"tree_param":{"num_deleted":"0","num_feature":"21","num_nodes":"7","size_leaf_vector":"1"}},{"base_weights":[-1.1160381E-4,3.482191E-2,-8.51531E-4,8.900553E-5,2.2902457E-5,-5.9091835E-5,-7.1316964E-7],"categories":[],"categories_nodes":[],"categories_segments":[],"categories_sizes":[],"default_left":[0,0,0,0,0,0,0],"id":73,"left_children":[1,3,5,-1,-1,-1,-1],"loss_changes":[3.6139663E-2,1.6916584E-2,1.5703393E-2,0E0,0E0,0E0,0E0],"parents":[2147483647,0,0,1,1,2,2],"right_children":[2,4,6,-1,-1,-1,-1],"split_conditions":[-3.4030937E-2,8.203309E-1,-1.0013197E-1,8.900553E-5,2.2902457E-5,-5.9091835E-5,-7.1316964E-7],"split_indices":[2,14,7,0,0,0,0],"split_type":[0,0,0,0,0,0,0],"sum_hessian":[1.396E3,2.8E1,1.368E3,6E0,2.2E1,5E0,1.363E3],"tree_param":{"num_deleted":"0","num_feature":"21","num_nodes":"7","size_leaf_vector":"1"}},{"base_weights":[-4.2201387E-4,-6.417631E-4,4.2081267E-2,6.219709E-6,-2.1164483E-6,7.370324E-5,1.0145548E-5],"categories":[],"categories_nodes":[],"categories_segments":[],"categories_sizes":[],"default_left":[0,0,0,0,0,0,0],"id":74,"left_children":[1,3,5,-1,-1,-1,-1],"loss_changes":[1.27108125E-2,1.0054676E-2,4.6825064E-3,0E0,0E0,0E0,0E0],"parents":[2147483647,0,0,1,1,2,2],"right_children":[2,4,6,-1,-1,-1,-1],"split_conditions":[4.1221373E-2,-6.666667E-1,8.474545E-1,6.219709E-6,-2.1164483E-6,7.370324E-5,1.0145548E-5],"split_indices":[4,6,8,0,0,0,0],"split_type":[0,0,0,0,0,0,0],"sum_hessian":[1.357E3,1.351E3,6E0,2.24E2,1.127E3,3E0,3E0],"tree_param":{"num_deleted":"0","num_feature":"21","num_nodes":"7","size_leaf_vector":"1"}},{"base_weights":[6.8230956E-4,2.767754E-2,8.146508E-5,1.2549441E-5,5.891394E-5,-3.366062E-5,2.9389912E-7],"categories":[],"categories_nodes":[],"categories_segments":[],"categories_sizes":[],"default_left":[0,0,0,0,0,0,0],"id":75,"left_children":[1,3,5,-1,-1,-1,-1],"loss_changes":[2.2348816E-2,1.1454303E-2,7.0723495E-3,0E0,0E0,0E0,0E0],"parents":[2147483647,0,0,1,1,2,2],"right_children":[2,4,6,-1,-1,-1,-1],"split_conditions":[-3.4030937E-2,8.660254E-1,-8.588037E-2,1.2549441E-5,5.891394E-5,-3.366062E-5,2.9389912E-7],"split_indices":[2,19,7,0,0,0,0],"split_type":[0,0,0,0,0,0,0],"sum_hessian":[1.377E3,2.9E1,1.348E3,1.8E1,1.1E1,7E0,1.341E3],"tree_param":{"num_deleted":"0","num_feature":"21","num_nodes":"7","size_leaf_vector":"1"}},{"base_weights":[1.2208834E-5,1.7464278E-2,-8.101491E-4,5.9419555E-5,1.0378959E-5,-3.0565458E-5,-5.402576E-7],"categories":[],"categories_nodes":[],"categories_segments":[],"categories_sizes":[],"default_left":[0,0,0,0,0,0,0],"id":76,"left_children":[1,3,5,-1,-1,-1,-1],"loss_changes":[2.0092387E-2,1.778717E-2,1.167087E-2,0E0,0E0,0E0,0E0],"parents":[2147483647,0,0,1,1,2,2],"right_children":[2,4,6,-1,-1,-1,-1],"split_conditions":[-2.6500015E-2,-4.188555E-2,-7.375355E-2,5.9419555E-5,1.0378959E-5,-3.0565458E-5,-5.402576E-7],"split_indices":[2,11,11,0,0,0,0],"split_type":[0,0,0,0,0,0,0],"sum_hessian":[1.398E3,6.2E1,1.336E3,1.1E1,5.1E1,1.6E1,1.32E3],"tree_param":{"num_deleted":"0","num_feature":"21","num_nodes":"7","size_leaf_vector":"1"}},{"base_weights":[-4.896122E-4,-2.3197552E-2,4.7818434E-5,-6.5803106E-5,-2.64608E-6,-3.7152068E-7,2.8463695E-5],"categories":[],"categories_nodes":[],"categories_segments":[],"categories_sizes":[],"default_left":[0,0,0,0,0,0,0],"id":77,"left_children":[1,3,5,-1,-1,-1,-1],"loss_changes":[1.6891368E-2,2.2973977E-2,1.2637864E-2,0E0,0E0,0E0,0E0],"parents":[2147483647,0,0,1,1,2,2],"right_children":[2,4,6,-1,-1,-1,-1],"split_conditions":[-7.0521295E-2,-2.2252093E-1,3.498728E-2,-6.5803106E-5,-2.64608E-6,-3.7152068E-7,2.8463695E-5],"split_indices":[7,18,4,0,0,0,0],"split_type":[0,0,0,0,0,0,0],"sum_hessian":[1.383E3,3.1E1,1.352E3,1.1E1,2E1,1.333E3,1.9E1],"tree_param":{"num_deleted":"0","num_feature":"21","num_nodes":"7","size_leaf_vector":"1"}},{"base_weights":[1.0864655E-3,1.5772436E-2,8.820952E-5,3.3239787E-5,6.519853E-6,-2.2771326E-5,7.4230456E-7],"categories":[],"categories_nodes":[],"categories_segments":[],"categories_sizes":[],"default_left":[0,0,0,0,0,0,0],"id":78,"left_children":[1,3,5,-1,-1,-1,-1],"loss_changes":[2.0039318E-2,1.1563245E-2,1.4519305E-2,0E0,0E0,0E0,0E0],"parents":[2147483647,0,0,1,1,2,2],"right_children":[2,4,6,-1,-1,-1,-1],"split_conditions":[-2.3584906E-2,-6.4977487E-3,-6.4302266E-2,3.3239787E-5,6.519853E-6,-2.2771326E-5,7.4230456E-7],"split_indices":[2,13,7,0,0,0,0],"split_type":[0,0,0,0,0,0,0],"sum_hessian":[1.366E3,8.6E1,1.28E3,3.6E1,5E1,3.4E1,1.246E3],"tree_param":{"num_deleted":"0","num_feature":"21","num_nodes":"7","size_leaf_vector":"1"}},{"base_weights":[1.2504283E-4,1.7657727E-2,-9.397377E-4,1.3698762E-5,4.1909574E-5,8.740935E-8,-2.001752E-5],"categories":[],"categories_nodes":[],"categories_segments":[],"categories_sizes":[],"default_left":[0,0,0,0,0,0,0],"id":79,"left_children":[1,3,5,-1,-1,-1,-1],"loss_changes":[2.5107006E-2,7.853802E-3,2.1450622E-2,0E0,0E0,0E0,0E0],"parents":[2147483647,0,0,1,1,2,2],"right_children":[2,4,6,-1,-1,-1,-1],"split_conditions":[-2.3584906E-2,1.3151604E0,2.5531914E-2,1.3698762E-5,4.1909574E-5,8.740935E-8,-2.001752E-5],"split_indices":[2,8,5,0,0,0,0],"split_type":[0,0,0,0,0,0,0],"sum_hessian":[1.343E3,7.6E1,1.267E3,6E1,1.6E1,1.195E3,7.2E1],"tree_param":{"num_deleted":"0","num_feature":"21","num_nodes":"7","size_leaf_vector":"1"}},{"base_weights":[2.8088596E-4,3.401338E-2,-4.5744787E-4,7.599962E-5,1.9134735E-5,-2.629312E-5,1.7400365E-7],"categories":[],"categories_nodes":[],"categories_segments":[],"categories_sizes":[],"default_left":[0,0,0,0,0,0,0],"id":80,"left_children":[1,3,5,-1,-1,-1,-1],"loss_changes":[3.4883738E-2,1.5777268E-2,1.8941907E-2,0E0,0E0,0E0,0E0],"parents":[2147483647,0,0,1,1,2,2],"right_children":[2,4,6,-1,-1,-1,-1],"split_conditions":[-3.4030937E-2,8.4689736E-1,-6.70354E-2,7.599962E-5,1.9134735E-5,-2.629312E-5,1.7400365E-7],"split_indices":[2,14,7,0,0,0,0],"split_type":[0,0,0,0,0,0,0],"sum_hessian":[1.399E3,2.9E1,1.37E3,9E0,2E1,3.5E1,1.335E3],"tree_param":{"num_deleted":"0","num_feature":"21","num_nodes":"7","size_leaf_vector":"1"}},{"base_weights":[4.668068E-4,2.047303E-2,-1.04291736E-4,4.501681E-5,-7.6507234E-7,-6.807054E-5,3.4617788E-8],"categories":[],"categories_nodes":[],"categories_segments":[],"categories_sizes":[],"default_left":[0,0,0,0,0,0,0],"id":81,"left_children":[1,3,5,-1,-1,-1,-1],"loss_changes":[1.5643679E-2,1.5344717E-2,1.0709335E-2,0E0,0E0,0E0,0E0],"parents":[2147483647,0,0,1,1,2,2],"right_children":[2,4,6,-1,-1,-1,-1],"split_conditions":[-2.9761905E-2,2.1245109E-2,-1.0013197E-1,4.501681E-5,-7.6507234E-7,-6.807054E-5,3.4617788E-8],"split_indices":[2,7,0,0,0,0,0],"split_type":[0,0,0,0,0,0,0],"sum_hessian":[1.368E3,3.7E1,1.331E3,1.9E1,1.8E1,2E0,1.329E3],"tree_param":{"num_deleted":"0","num_feature":"21","num_nodes":"7","size_leaf_vector":"1"}},{"base_weights":[1.670731E-4,1.6982025E-2,-7.3708483E-4,5.09492E-5,1.0522488E-5,3.322572E-5,-1.1552302E-6],"categories":[],"categories_nodes":[],"categories_segments":[],"categories_sizes":[],"default_left":[0,0,0,0,0,0,0],"id":82,"left_children":[1,3,5,-1,-1,-1,-1],"loss_changes":[2.085634E-2,1.4630489E-2,1.08402E-2,0E0,0E0,0E0,0E0],"parents":[2147483647,0,0,1,1,2,2],"right_children":[2,4,6,-1,-1,-1,-1],"split_conditions":[-4.2937852E-2,-4.4856004E-2,-8.588037E-2,5.09492E-5,1.0522488E-5,3.322572E-5,-1.1552302E-6],"split_indices":[3,11,13,0,0,0,0],"split_type":[0,0,0,0,0,0,0],"sum_hessian":[1.37E3,6.9E1,1.301E3,1.4E1,5.5E1,1.1E1,1.29E3],"tree_param":{"num_deleted":"0","num_feature":"21","num_nodes":"7","size_leaf_vector":"1"}},{"base_weights":[1.0414151E-3,2.7704697E-2,2.1479325E-4,7.304875E-5,1.8011528E-5,6.002832E-7,-3.3896646E-5],"categories":[],"categories_nodes":[],"categories_segments":[],"categories_sizes":[],"default_left":[0,0,0,0,0,0,0],"id":83,"left_children":[1,3,5,-1,-1,-1,-1],"loss_changes":[3.0784555E-2,1.7181888E-2,1.2718728E-2,0E0,0E0,0E0,0E0],"parents":[2147483647,0,0,1,1,2,2],"right_children":[2,4,6,-1,-1,-1,-1],"split_conditions":[-2.9761905E-2,-4.4856004E-2,8.551802E-2,7.304875E-5,1.8011528E-5,6.002832E-7,-3.3896646E-5],"split_indices":[2,11,9,0,0,0,0],"split_type":[0,0,0,0,0,0,0],"sum_hessian":[1.396E3,4.1E1,1.355E3,9E0,3.2E1,1.342E3,1.3E1],"tree_param":{"num_deleted":"0","num_feature":"21","num_nodes":"7","size_leaf_vector":"1"}},{"base_weights":[4.6973987E-4,6.050827E-6,2.8480498E-2,-1.15630955E-5,9.46769E-7,6.162357E-5,1.7627915E-5],"categories":[],"categories_nodes":[],"categories_segments":[],"categories_sizes":[],"default_left":[0,0,0,0,0,0,0],"id":84,"left_children":[1,3,5,-1,-1,-1,-1],"loss_changes":[1.7546996E-2,1.1164659E-2,6.4947233E-3,0E0,0E0,0E0,0E0],"parents":[2147483647,0,0,1,1,2,2],"right_children":[2,4,6,-1,-1,-1,-1],"split_conditions":[3.498728E-2,-4.0005334E-2,-5.3393465E-2,-1.15630955E-5,9.46769E-7,6.162357E-5,1.7627915E-5],"split_indices":[4,15,0,0,0,0,0],"split_type":[0,0,0,0,0,0,0],"sum_hessian":[1.35E3,1.329E3,2.1E1,9.9E1,1.23E3,6E0,1.5E1],"tree_param":{"num_deleted":"0","num_feature":"21","num_nodes":"7","size_leaf_vector":"1"}},{"base_weights":[1.1565611E-3,1.7236192E-2,1.3513213E-4,8.774468E-6,2.9262255E-5,4.1647894E-5,-2.0229209E-7],"categories":[],"categories_nodes":[],"categories_segments":[],"categories_sizes":[],"default_left":[0,0,0,0,0,0,0],"id":85,"left_children":[1,3,5,-1,-1,-1,-1],"loss_changes":[2.2548098E-2,6.416153E-3,1.4734542E-2,0E0,0E0,0E0,0E0],"parents":[2147483647,0,0,1,1,2,2],"right_children":[2,4,6,-1,-1,-1,-1],"split_conditions":[-2.3584906E-2,5E-1,-8.588037E-2,8.774468E-6,2.9262255E-5,4.1647894E-5,-2.0229209E-7],"split_indices":[2,19,13,0,0,0,0],"split_type":[0,0,0,0,0,0,0],"sum_hessian":[1.372E3,8.1E1,1.291E3,3.9E1,4.2E1,1E1,1.281E3],"tree_param":{"num_deleted":"0","num_feature":"21","num_nodes":"7","size_leaf_vector":"1"}},{"base_weights":[1.7286756E-4,2.0162407E-2,-9.602142E-4,5.8256217E-5,1.43377165E-5,-4.587707E-5,-6.361788E-7],"categories":[],"categories_nodes":[],"categories_segments":[],"categories_sizes":[],"default_left":[0,0,0,0,0,0,0],"id":86,"left_children":[1,3,5,-1,-1,-1,-1],"loss_changes":[3.0823065E-2,1.6487924E-2,2.031627E-2,0E0,0E0,0E0,0E0],"parents":[2147483647,0,0,1,1,2,2],"right_children":[2,4,6,-1,-1,-1,-1],"split_conditions":[-2.5148166E-2,-5.3393465E-2,-8.588037E-2,5.8256217E-5,1.43377165E-5,-4.587707E-5,-6.361788E-7],"split_indices":[2,11,7,0,0,0,0],"split_type":[0,0,0,0,0,0,0],"sum_hessian":[1.359E3,7.2E1,1.287E3,1.3E1,5.9E1,1.2E1,1.275E3],"tree_param":{"num_deleted":"0","num_feature":"21","num_nodes":"7","size_leaf_vector":"1"}},{"base_weights":[5.1975256E-4,1.597604E-2,-4.7859323E-4,8.009645E-5,1.4093751E-5,2.0479266E-7,-1.3732165E-5],"categories":[],"categories_nodes":[],"categories_segments":[],"categories_sizes":[],"default_left":[0,0,0,0,0,0,0],"id":87,"left_children":[1,3,5,-1,-1,-1,-1],"loss_changes":[2.1363761E-2,1.5561147E-2,9.923934E-3,0E0,0E0,0E0,0E0],"parents":[2147483647,0,0,1,1,2,2],"right_children":[2,4,6,-1,-1,-1,-1],"split_conditions":[-2.3584906E-2,-7.937936E-2,4.259596E-2,8.009645E-5,1.4093751E-5,2.0479266E-7,-1.3732165E-5],"split_indices":[2,11,3,0,0,0,0],"split_type":[0,0,0,0,0,0,0],"sum_hessian":[1.383E3,8.3E1,1.3E3,4E0,7.9E1,1.231E3,6.9E1],"tree_param":{"num_deleted":"0","num_feature":"21","num_nodes":"7","size_leaf_vector":"1"}},{"base_weights":[-3.931583E-6,1.6524455E-2,-1.0353804E-3,5.666605E-5,1.1516368E-5,-1.380589E-7,-1.7670132E-5],"categories":[],"categories_nodes":[],"categories_segments":[],"categories_sizes":[],"default_left":[0,0,0,0,0,0,0],"id":88,"left_children":[1,3,5,-1,-1,-1,-1],"loss_changes":[2.3799323E-2,1.6970063E-2,1.7395563E-2,0E0,0E0,0E0,0E0],"parents":[2147483647,0,0,1,1,2,2],"right_children":[2,4,6,-1,-1,-1,-1],"split_conditions":[-2.3584906E-2,-4.188555E-2,2.4349751E-2,5.666605E-5,1.1516368E-5,-1.380589E-7,-1.7670132E-5],"split_indices":[2,11,5,0,0,0,0],"split_type":[0,0,0,0,0,0,0],"sum_hessian":[1.394E3,8.1E1,1.313E3,1.2E1,6.9E1,1.236E3,7.7E1],"tree_param":{"num_deleted":"0","num_feature":"21","num_nodes":"7","size_leaf_vector":"1"}},{"base_weights":[-2.7327175E-4,-3.9258715E-2,1.2473809E-4,-1.0062536E-4,-2.029967E-5,3.176142E-5,-4.444921E-7],"categories":[],"categories_nodes":[],"categories_segments":[],"categories_sizes":[],"default_left":[0,0,0,0,0,0,0],"id":89,"left_children":[1,3,5,-1,-1,-1,-1],"loss_changes":[2.1495372E-2,1.3160752E-2,1.963769E-2,0E0,0E0,0E0,0E0],"parents":[2147483647,0,0,1,1,2,2],"right_children":[2,4,6,-1,-1,-1,-1],"split_conditions":[-8.588037E-2,0E0,-7.375355E-2,-1.0062536E-4,-2.029967E-5,3.176142E-5,-4.444921E-7],"split_indices":[7,17,13,0,0,0,0],"split_type":[0,0,0,0,0,0,0],"sum_hessian":[1.384E3,1.3E1,1.371E3,3E0,1E1,2.4E1,1.347E3],"tree_param":{"num_deleted":"0","num_feature":"21","num_nodes":"7","size_leaf_vector":"1"}},{"base_weights":[-6.239545E-5,2.2428732E-2,-1.1325175E-3,3.808521E-5,7.1810223E-6,-4.539918E-5,-9.4196577E-7],"categories":[],"categories_nodes":[],"categories_segments":[],"categories_sizes":[],"default_left":[0,0,0,0,0,0,0],"id":90,"left_children":[1,3,5,-1,-1,-1,-1],"loss_changes":[3.2325E-2,1.0626962E-2,1.5125495E-2,0E0,0E0,0E0,0E0],"parents":[2147483647,0,0,1,1,2,2],"right_children":[2,4,6,-1,-1,-1,-1],"split_conditions":[-2.6500015E-2,2.5275145E-2,-8.588037E-2,3.808521E-5,7.1810223E-6,-4.539918E-5,-9.4196577E-7],"split_indices":[2,7,7,0,0,0,0],"split_type":[0,0,0,0,0,0,0],"sum_hessian":[1.341E3,6E1,1.281E3,3.5E1,2.5E1,9E0,1.272E3],"tree_param":{"num_deleted":"0","num_feature":"21","num_nodes":"7","size_leaf_vector":"1"}},{"base_weights":[-6.3450646E-4,-3.684369E-2,-2.3230801E-4,-9.140153E-5,-1.5658534E-5,3.8582373E-5,-6.704736E-7],"categories":[],"categories_nodes":[],"categories_segments":[],"categories_sizes":[],"default_left":[0,0,0,0,0,0,0],"id":91,"left_children":[1,3,5,-1,-1,-1,-1],"loss_changes":[1.9884877E-2,1.393944E-2,1.6466899E-2,0E0,0E0,0E0,0E0],"parents":[2147483647,0,0,1,1,2,2],"right_children":[2,4,6,-1,-1,-1,-1],"split_conditions":[-8.588037E-2,-2.2252093E-1,-7.937936E-2,-9.140153E-5,-1.5658534E-5,3.8582373E-5,-6.704736E-7],"split_indices":[7,18,11,0,0,0,0],"split_type":[0,0,0,0,0,0,0],"sum_hessian":[1.365E3,1.4E1,1.351E3,4E0,1E1,1.3E1,1.338E3],"tree_param":{"num_deleted":"0","num_feature":"21","num_nodes":"7","size_leaf_vector":"1"}},{"base_weights":[9.061179E-5,5.5320753E-4,-2.8615471E-2,1.6417263E-5,-3.3968706E-7,-1.4280007E-5,-9.195048E-5],"categories":[],"categories_nodes":[],"categories_segments":[],"categories_sizes":[],"default_left":[0,0,0,0,0,0,0],"id":92,"left_children":[1,3,5,-1,-1,-1,-1],"loss_changes":[1.8420957E-2,1.6121183E-2,1.7425789E-2,0E0,0E0,0E0,0E0],"parents":[2147483647,0,0,1,1,2,2],"right_children":[2,4,6,-1,-1,-1,-1],"split_conditions":[3.7455104E-2,-3.9079737E-2,1E0,1.6417263E-5,-3.3968706E-7,-1.4280007E-5,-9.195048E-5],"split_indices":[5,3,19,0,0,0,0],"split_type":[0,0,0,0,0,0,0],"sum_hessian":[1.385E3,1.364E3,2.1E1,7.8E1,1.286E3,1.7E1,4E0],"tree_param":{"num_deleted":"0","num_feature":"21","num_nodes":"7","size_leaf_vector":"1"}},{"base_weights":[7.362937E-4,-9.2009484E-4,6.0661607E-3,-4.017453E-5,-3.6015877E-7,1.78513E-5,2.7503106E-6],"categories":[],"categories_nodes":[],"categories_segments":[],"categories_sizes":[],"default_left":[0,0,0,0,0,0,0],"id":93,"left_children":[1,3,5,-1,-1,-1,-1],"loss_changes":[1.2065082E-2,2.1629293E-2,1.13314595E-2,0E0,0E0,0E0,0E0],"parents":[2147483647,0,0,1,1,2,2],"right_children":[2,4,6,-1,-1,-1,-1],"split_conditions":[1.1976048E-2,-7.0521295E-2,-2.1819048E-2,-4.017453E-5,-3.6015877E-7,1.78513E-5,2.7503106E-6],"split_indices":[4,7,7,0,0,0,0],"split_type":[0,0,0,0,0,0,0],"sum_hessian":[1.365E3,1.042E3,3.23E2,1.7E1,1.025E3,8.8E1,2.35E2],"tree_param":{"num_deleted":"0","num_feature":"21","num_nodes":"7","size_leaf_vector":"1"}},{"base_weights":[1.9122599E-4,1.0851261E-2,-1.1598356E-3,1.5582918E-5,-2.1496031E-5,-3.8943163E-5,-8.870573E-7],"categories":[],"categories_nodes":[],"categories_segments":[],"categories_sizes":[],"default_left":[0,0,0,0,0,0,0],"id":94,"left_children":[1,3,5,-1,-1,-1,-1],"loss_changes":[1.9974262E-2,1.34062E-2,1.54609345E-2,0E0,0E0,0E0,0E0],"parents":[2147483647,0,0,1,1,2,2],"right_children":[2,4,6,-1,-1,-1,-1],"split_conditions":[-3.3774316E-2,-7.6045627E-3,-7.375355E-2,1.5582918E-5,-2.1496031E-5,-3.8943163E-5,-8.870573E-7],"split_indices":[0,3,9,0,0,0,0],"split_type":[0,0,0,0,0,0,0],"sum_hessian":[1.385E3,1.55E2,1.23E3,1.42E2,1.3E1,1.3E1,1.217E3],"tree_param":{"num_deleted":"0","num_feature":"21","num_nodes":"7","size_leaf_vector":"1"}},{"base_weights":[7.557998E-5,2.9684268E-2,-2.9815666E-4,7.263636E-5,6.0107654E-6,-3.822289E-5,5.835126E-8],"categories":[],"categories_nodes":[],"categories_segments":[],"categories_sizes":[],"default_left":[0,0,0,0,0,0,0],"id":95,"left_children":[1,3,5,-1,-1,-1,-1],"loss_changes":[1.5091607E-2,1.3815199E-2,1.566115E-2,0E0,0E0,0E0,0E0],"parents":[2147483647,0,0,1,1,2,2],"right_children":[2,4,6,-1,-1,-1,-1],"split_conditions":[-6.8822555E-2,8.310778E-1,-8.588037E-2,7.263636E-5,6.0107654E-6,-3.822289E-5,5.835126E-8],"split_indices":[3,16,7,0,0,0,0],"split_type":[0,0,0,0,0,0,0],"sum_hessian":[1.362E3,1.6E1,1.346E3,6E0,1E1,1.3E1,1.333E3],"tree_param":{"num_deleted":"0","num_feature":"21","num_nodes":"7","size_leaf_vector":"1"}},{"base_weights":[-1.5219295E-4,1.6945604E-2,-1.1907257E-3,1.3898405E-5,6.47702E-5,-3.780996E-5,-9.241273E-7],"categories":[],"categories_nodes":[],"categories_segments":[],"categories_sizes":[],"default_left":[0,0,0,0,0,0,0],"id":96,"left_children":[1,3,5,-1,-1,-1,-1],"loss_changes":[2.418694E-2,1.4069246E-2,1.555721E-2,0E0,0E0,0E0,0E0],"parents":[2147483647,0,0,1,1,2,2],"right_children":[2,4,6,-1,-1,-1,-1],"split_conditions":[-2.5148166E-2,1.7500156E0,-7.375355E-2,1.3898405E-5,6.47702E-5,-3.780996E-5,-9.241273E-7],"split_indices":[2,10,9,0,0,0,0],"split_type":[0,0,0,0,0,0,0],"sum_hessian":[1.36E3,7.7E1,1.283E3,7E1,7E0,1.4E1,1.269E3],"tree_param":{"num_deleted":"0","num_feature":"21","num_nodes":"7","size_leaf_vector":"1"}},{"base_weights":[-1.3996132E-4,1.927861E-2,-1.1650567E-3,5.7220775E-5,1.337086E-5,-2.90347E-5,-5.2938634E-7],"categories":[],"categories_nodes":[],"categories_segments":[],"categories_sizes":[],"default_left":[0,0,0,0,0,0,0],"id":97,"left_children":[1,3,5,-1,-1,-1,-1],"loss_changes":[2.6994942E-2,1.5282482E-2,2.1932373E-2,0E0,0E0,0E0,0E0],"parents":[2147483647,0,0,1,1,2,2],"right_children":[2,4,6,-1,-1,-1,-1],"split_conditions":[-4.1751117E-2,-4.4856004E-2,-6.4302266E-2,5.7220775E-5,1.337086E-5,-2.90347E-5,-5.2938634E-7],"split_indices":[3,11,7,0,0,0,0],"split_type":[0,0,0,0,0,0,0],"sum_hessian":[1.354E3,6.7E1,1.287E3,1.2E1,5.5E1,3.5E1,1.252E3],"tree_param":{"num_deleted":"0","num_feature":"21","num_nodes":"7","size_leaf_vector":"1"}},{"base_weights":[7.582249E-4,1.637591E-2,-2.9344694E-4,6.43967E-5,1.3055872E-5,-4.409905E-5,1.5631686E-7],"categories":[],"categories_nodes":[],"categories_segments":[],"categories_sizes":[],"default_left":[0,0,0,0,0,0,0],"id":98,"left_children":[1,3,5,-1,-1,-1,-1],"loss_changes":[2.212885E-2,1.6118977E-2,2.0916129E-2,0E0,0E0,0E0,0E0],"parents":[2147483647,0,0,1,1,2,2],"right_children":[2,4,6,-1,-1,-1,-1],"split_conditions":[-3.9079737E-2,-7.375355E-2,-7.375355E-2,6.43967E-5,1.3055872E-5,-4.409905E-5,1.5631686E-7],"split_indices":[3,11,11,0,0,0,0],"split_type":[0,0,0,0,0,0,0],"sum_hessian":[1.346E3,8.4E1,1.262E3,8E0,7.6E1,1.3E1,1.249E3],"tree_param":{"num_deleted":"0","num_feature":"21","num_nodes":"7","size_leaf_vector":"1"}},{"base_weights":[6.452795E-4,1.7630652E-2,-5.2087E-4,1.6504173E-5,6.789892E-5,1.4433279E-7,-1.46727625E-5],"categories":[],"categories_nodes":[],"categories_segments":[],"categories_sizes":[],"default_left":[0,0,0,0,0,0,0],"id":99,"left_children":[1,3,5,-1,-1,-1,-1],"loss_changes":[2.8056579E-2,1.1120258E-2,1.0620949E-2,0E0,0E0,0E0,0E0],"parents":[2147483647,0,0,1,1,2,2],"right_children":[2,4,6,-1,-1,-1,-1],"split_conditions":[-2.3584906E-2,2.6859503E-2,4.259596E-2,1.6504173E-5,6.789892E-5,1.4433279E-7,-1.46727625E-5],"split_indices":[2,4,3,0,0,0,0],"split_type":[0,0,0,0,0,0,0],"sum_hessian":[1.415E3,9E1,1.325E3,8.5E1,5E0,1.26E3,6.5E1],"tree_param":{"num_deleted":"0","num_feature":"21","num_nodes":"7","size_leaf_vector":"1"}},{"base_weights":[7.716846E-6,1.5242542E-2,-9.5325505E-4,6.040719E-5,9.834262E-6,-5.972875E-5,-7.67298E-7],"categories":[],"categories_nodes":[],"categories_segments":[],"categories_sizes":[],"default_left":[0,0,0,0,0,0,0],"id":100,"left_children":[1,3,5,-1,-1,-1,-1],"loss_changes":[2.0232702E-2,2.0021992E-2,1.86694E-2,0E0,0E0,0E0,0E0],"parents":[2147483647,0,0,1,1,2,2],"right_children":[2,4,6,-1,-1,-1,-1],"split_conditions":[-3.9079737E-2,-4.188555E-2,-7.0521295E-2,6.040719E-5,9.834262E-6,-5.972875E-5,-7.67298E-7],"split_indices":[3,11,0,0,0,0,0],"split_type":[0,0,0,0,0,0,0],"sum_hessian":[1.38E3,8.1E1,1.299E3,1.1E1,7E1,6E0,1.293E3],"tree_param":{"num_deleted":"0","num_feature":"21","num_nodes":"7","size_leaf_vector":"1"}},{"base_weights":[-5.602683E-4,1.7545745E-2,-1.7434161E-3,5.527863E-5,1.2735373E-5,-2.2991395E-5,-1.1689817E-6],"categories":[],"categories_nodes":[],"categories_segments":[],"categories_sizes":[],"default_left":[0,0,0,0,0,0,0],"id":101,"left_children":[1,3,5,-1,-1,-1,-1],"loss_changes":[2.933601E-2,1.6022116E-2,1.6971061E-2,0E0,0E0,0E0,0E0],"parents":[2147483647,0,0,1,1,2,2],"right_children":[2,4,6,-1,-1,-1,-1],"split_conditions":[-3.9079737E-2,-4.4856004E-2,-5.905649E-2,5.527863E-5,1.2735373E-5,-2.2991395E-5,-1.1689817E-6],"split_indices":[3,11,7,0,0,0,0],"split_type":[0,0,0,0,0,0,0],"sum_hessian":[1.367E3,8.3E1,1.284E3,1.3E1,7E1,4.7E1,1.237E3],"tree_param":{"num_deleted":"0","num_feature":"21","num_nodes":"7","size_leaf_vector":"1"}},{"base_weights":[-1.1340544E-4,-1.9063799E-2,3.9808452E-4,-6.373912E-6,-5.597214E-5,7.643896E-6,-8.29145E-7],"categories":[],"categories_nodes":[],"categories_segments":[],"categories_sizes":[],"default_left":[0,0,0,0,0,0,0],"id":102,"left_children":[1,3,5,-1,-1,-1,-1],"loss_changes":[1.3277219E-2,1.4313916E-2,9.493614E-3,0E0,0E0,0E0,0E0],"parents":[2147483647,0,0,1,1,2,2],"right_children":[2,4,6,-1,-1,-1,-1],"split_conditions":[-6.70354E-2,1.527975E-2,-6.923077E-1,-6.373912E-6,-5.597214E-5,7.643896E-6,-8.29145E-7],"split_indices":[7,9,6,0,0,0,0],"split_type":[0,0,0,0,0,0,0],"sum_hessian":[1.368E3,3.5E1,1.333E3,2.5E1,1E1,2.01E2,1.132E3],"tree_param":{"num_deleted":"0","num_feature":"21","num_nodes":"7","size_leaf_vector":"1"}},{"base_weights":[3.0980905E-4,1.2410578E-2,-5.0579396E-4,-1.593699E-5,1.8189789E-5,3.6268736E-7,-1.5357205E-5],"categories":[],"categories_nodes":[],"categories_segments":[],"categories_sizes":[],"default_left":[0,0,0,0,0,0,0],"id":103,"left_children":[1,3,5,-1,-1,-1,-1],"loss_changes":[1.37543855E-2,8.50831E-3,1.3980486E-2,0E0,0E0,0E0,0E0],"parents":[2147483647,0,0,1,1,2,2],"right_children":[2,4,6,-1,-1,-1,-1],"split_conditions":[-3.9079737E-2,8.6682093E-1,2.4349751E-2,-1.593699E-5,1.8189789E-5,3.6268736E-7,-1.5357205E-5],"split_indices":[3,1,5,0,0,0,0],"split_type":[0,0,0,0,0,0,0],"sum_hessian":[1.392E3,8.7E1,1.305E3,1E1,7.7E1,1.228E3,7.7E1],"tree_param":{"num_deleted":"0","num_feature":"21","num_nodes":"7","size_leaf_vector":"1"}},{"base_weights":[3.2687446E-4,1.8780017E-2,-3.4035274E-4,4.7502723E-5,1.0323983E-5,-2.1802245E-8,-3.0375384E-5],"categories":[],"categories_nodes":[],"categories_segments":[],"categories_sizes":[],"default_left":[0,0,0,0,0,0,0],"id":104,"left_children":[1,3,5,-1,-1,-1,-1],"loss_changes":[1.6935995E-2,1.0316776E-2,1.1234024E-2,0E0,0E0,0E0,0E0],"parents":[2147483647,0,0,1,1,2,2],"right_children":[2,4,6,-1,-1,-1,-1],"split_conditions":[-4.8550725E-2,7.973129E-1,8.551802E-2,4.7502723E-5,1.0323983E-5,-2.1802245E-8,-3.0375384E-5],"split_indices":[3,16,9,0,0,0,0],"split_type":[0,0,0,0,0,0,0],"sum_hessian":[1.374E3,4.7E1,1.327E3,1.3E1,3.4E1,1.312E3,1.5E1],"tree_param":{"num_deleted":"0","num_feature":"21","num_nodes":"7","size_leaf_vector":"1"}},{"base_weights":[-2.263701E-4,-5.891775E-4,3.3021875E-2,-1.5215569E-5,2.281989E-7,6.2383806E-5,3.6067607E-7],"categories":[],"categories_nodes":[],"categories_segments":[],"categories_sizes":[],"default_left":[0,0,0,0,0,0,0],"id":105,"left_children":[1,3,5,-1,-1,-1,-1],"loss_changes":[1.6762495E-2,1.3861585E-2,1.0661613E-2,0E0,0E0,0E0,0E0],"parents":[2147483647,0,0,1,1,2,2],"right_children":[2,4,6,-1,-1,-1,-1],"split_conditions":[4.1221373E-2,-4.605067E-2,-1.8868484E-2,-1.5215569E-5,2.281989E-7,6.2383806E-5,3.6067607E-7],"split_indices":[4,15,0,0,0,0,0],"split_type":[0,0,0,0,0,0,0],"sum_hessian":[1.387E3,1.373E3,1.4E1,7.9E1,1.294E3,8E0,6E0],"tree_param":{"num_deleted":"0","num_feature":"21","num_nodes":"7","size_leaf_vector":"1"}},{"base_weights":[4.4232732E-4,1.7512104E-2,-5.448647E-4,6.676808E-5,1.3251361E-5,1.940996E-7,-1.30050075E-5],"categories":[],"categories_nodes":[],"categories_segments":[],"categories_sizes":[],"default_left":[0,0,0,0,0,0,0],"id":106,"left_children":[1,3,5,-1,-1,-1,-1],"loss_changes":[2.2809144E-2,1.719444E-2,9.961364E-3,0E0,0E0,0E0,0E0],"parents":[2147483647,0,0,1,1,2,2],"right_children":[2,4,6,-1,-1,-1,-1],"split_conditions":[-2.5148166E-2,-5.3393465E-2,4.9970105E-2,6.676808E-5,1.3251361E-5,1.940996E-7,-1.30050075E-5],"split_indices":[2,11,9,0,0,0,0],"split_type":[0,0,0,0,0,0,0],"sum_hessian":[1.352E3,7.3E1,1.279E3,8E0,6.5E1,1.201E3,7.8E1],"tree_param":{"num_deleted":"0","num_feature":"21","num_nodes":"7","size_leaf_vector":"1"}},{"base_weights":[2.8720222E-4,1.4792127E-2,-6.8920775E-4,7.5219E-5,1.1456452E-5,-4.4902867E-5,-2.8997871E-7],"categories":[],"categories_nodes":[],"categories_segments":[],"categories_sizes":[],"default_left":[0,0,0,0,0,0,0],"id":107,"left_children":[1,3,5,-1,-1,-1,-1],"loss_changes":[1.9087423E-2,1.9949665E-2,2.1255048E-2,0E0,0E0,0E0,0E0],"parents":[2147483647,0,0,1,1,2,2],"right_children":[2,4,6,-1,-1,-1,-1],"split_conditions":[-3.9079737E-2,-7.375355E-2,-8.588037E-2,7.5219E-5,1.1456452E-5,-4.4902867E-5,-2.8997871E-7],"split_indices":[3,11,7,0,0,0,0],"split_type":[0,0,0,0,0,0,0],"sum_hessian":[1.346E3,8.4E1,1.262E3,6E0,7.8E1,1.3E1,1.249E3],"tree_param":{"num_deleted":"0","num_feature":"21","num_nodes":"7","size_leaf_vector":"1"}},{"base_weights":[-4.8100972E-4,1.8416438E-2,-1.5005474E-3,5.2954347E-5,1.4107975E-5,-5.618796E-5,-1.4965262E-6],"categories":[],"categories_nodes":[],"categories_segments":[],"categories_sizes":[],"default_left":[0,0,0,0,0,0,0],"id":108,"left_children":[1,3,5,-1,-1,-1,-1],"loss_changes":[2.6345892E-2,1.1273036E-2,1.1489673E-2,0E0,0E0,0E0,0E0],"parents":[2147483647,0,0,1,1,2,2],"right_children":[2,4,6,-1,-1,-1,-1],"split_conditions":[-2.5806451E-2,-4.188555E-2,-7.937936E-2,5.2954347E-5,1.4107975E-5,-5.618796E-5,-1.4965262E-6],"split_indices":[2,11,0,0,0,0,0],"split_type":[0,0,0,0,0,0,0],"sum_hessian":[1.365E3,6.9E1,1.296E3,1.1E1,5.8E1,4E0,1.292E3],"tree_param":{"num_deleted":"0","num_feature":"21","num_nodes":"7","size_leaf_vector":"1"}},{"base_weights":[-4.749726E-4,1.7021319E-2,-1.3615165E-3,4.4882512E-5,1.28821275E-5,2.63029E-5,-2.0273599E-6],"categories":[],"categories_nodes":[],"categories_segments":[],"categories_sizes":[],"default_left":[0,0,0,0,0,0,0],"id":109,"left_children":[1,3,5,-1,-1,-1,-1],"loss_changes":[2.1227026E-2,7.990835E-3,1.3388398E-2,0E0,0E0,0E0,0E0],"parents":[2147483647,0,0,1,1,2,2],"right_children":[2,4,6,-1,-1,-1,-1],"split_conditions":[-2.5148166E-2,8.464748E-1,-7.375355E-2,4.4882512E-5,1.28821275E-5,2.63029E-5,-2.0273599E-6],"split_indices":[2,10,13,0,0,0,0],"split_type":[0,0,0,0,0,0,0],"sum_hessian":[1.366E3,6.5E1,1.301E3,1.2E1,5.3E1,2.1E1,1.28E3],"tree_param":{"num_deleted":"0","num_feature":"21","num_nodes":"7","size_leaf_vector":"1"}},{"base_weights":[1.4960424E-4,6.3945085E-4,-3.7059836E-2,2.2941414E-5,-2.8029437E-8,-1.1816507E-5,-7.126296E-5],"categories":[],"categories_nodes":[],"categories_segments":[],"categories_sizes":[],"default_left":[0,0,0,0,0,0,0],"id":110,"left_children":[1,3,5,-1,-1,-1,-1],"loss_changes":[2.5249753E-2,1.7710766E-2,1.1611076E-2,0E0,0E0,0E0,0E0],"parents":[2147483647,0,0,1,1,2,2],"right_children":[2,4,6,-1,-1,-1,-1],"split_conditions":[3.9973218E-2,-2.9761905E-2,6.8421054E-1,2.2941414E-5,-2.8029437E-8,-1.1816507E-5,-7.126296E-5],"split_indices":[5,2,6,0,0,0,0],"split_type":[0,0,0,0,0,0,0],"sum_hessian":[1.383E3,1.366E3,1.7E1,4.4E1,1.322E3,9E0,8E0],"tree_param":{"num_deleted":"0","num_feature":"21","num_nodes":"7","size_leaf_vector":"1"}},{"base_weights":[3.1522056E-4,1.9596167E-2,-7.3862914E-4,1.2153015E-5,4.89417E-5,-4.8063965E-5,-4.31643E-7],"categories":[],"categories_nodes":[],"categories_segments":[],"categories_sizes":[],"default_left":[0,0,0,0,0,0,0],"id":111,"left_children":[1,3,5,-1,-1,-1,-1],"loss_changes":[2.7445419E-2,1.4148779E-2,1.908541E-2,0E0,0E0,0E0,0E0],"parents":[2147483647,0,0,1,1,2,2],"right_children":[2,4,6,-1,-1,-1,-1],"split_conditions":[-2.5148166E-2,1.775148E-2,-8.588037E-2,1.2153015E-5,4.89417E-5,-4.8063965E-5,-4.31643E-7],"split_indices":[2,4,7,0,0,0,0],"split_type":[0,0,0,0,0,0,0],"sum_hessian":[1.349E3,6.9E1,1.28E3,5.1E1,1.8E1,1E1,1.27E3],"tree_param":{"num_deleted":"0","num_feature":"21","num_nodes":"7","size_leaf_vector":"1"}},{"base_weights":[3.3008194E-4,5.780825E-5,3.7407976E-2,-2.7219093E-7,3.0459909E-5,5.7051002E-5,1.6723998E-5],"categories":[],"categories_nodes":[],"categories_segments":[],"categories_sizes":[],"default_left":[0,0,0,0,0,0,0],"id":112,"left_children":[1,3,5,-1,-1,-1,-1],"loss_changes":[1.3848637E-2,1.0807701E-2,2.1490753E-3,0E0,0E0,0E0,0E0],"parents":[2147483647,0,0,1,1,2,2],"right_children":[2,4,6,-1,-1,-1,-1],"split_conditions":[4.1221373E-2,7.302514E-2,-1.8868484E-2,-2.7219093E-7,3.0459909E-5,5.7051002E-5,1.6723998E-5],"split_indices":[4,13,0,0,0,0,0],"split_type":[0,0,0,0,0,0,0],"sum_hessian":[1.371E3,1.362E3,9E0,1.348E3,1.4E1,5E0,4E0],"tree_param":{"num_deleted":"0","num_feature":"21","num_nodes":"7","size_leaf_vector":"1"}},{"base_weights":[-5.7942256E-5,9.435237E-3,-1.2694645E-3,2.3419794E-5,1.6309311E-6,-3.292307E-5,-1.0844833E-6],"categories":[],"categories_nodes":[],"categories_segments":[],"categories_sizes":[],"default_left":[0,0,0,0,0,0,0],"id":113,"left_children":[1,3,5,-1,-1,-1,-1],"loss_changes":[1.605615E-2,1.4048594E-2,1.0821713E-2,0E0,0E0,0E0,0E0],"parents":[2147483647,0,0,1,1,2,2],"right_children":[2,4,6,-1,-1,-1,-1],"split_conditions":[-3.3774316E-2,-1.6826523E-3,-7.0521295E-2,2.3419794E-5,1.6309311E-6,-3.292307E-5,-1.0844833E-6],"split_indices":[0,7,11,0,0,0,0],"split_type":[0,0,0,0,0,0,0],"sum_hessian":[1.394E3,1.57E2,1.237E3,6.5E1,9.2E1,1.3E1,1.224E3],"tree_param":{"num_deleted":"0","num_feature":"21","num_nodes":"7","size_leaf_vector":"1"}},{"base_weights":[-3.977712E-4,2.8177663E-5,-2.467803E-2,1.3687448E-5,-7.365166E-7,-5.3791277E-6,-7.286432E-5],"categories":[],"categories_nodes":[],"categories_segments":[],"categories_sizes":[],"default_left":[0,0,0,0,0,0,0],"id":114,"left_children":[1,3,5,-1,-1,-1,-1],"loss_changes":[1.43969655E-2,1.1091026E-2,1.8526029E-2,0E0,0E0,0E0,0E0],"parents":[2147483647,0,0,1,1,2,2],"right_children":[2,4,6,-1,-1,-1,-1],"split_conditions":[3.7455104E-2,-9E-1,7.7431905E-1,1.3687448E-5,-7.365166E-7,-5.3791277E-6,-7.286432E-5],"split_indices":[5,6,6,0,0,0,0],"split_type":[0,0,0,0,0,0,0],"sum_hessian":[1.391E3,1.368E3,2.3E1,7.2E1,1.296E3,1.6E1,7E0],"tree_param":{"num_deleted":"0","num_feature":"21","num_nodes":"7","size_leaf_vector":"1"}},{"base_weights":[4.6992116E-4,-2.4577526E-2,1.0184628E-3,-6.689953E-5,-5.181096E-6,-9.939345E-6,1.7115517E-6],"categories":[],"categories_nodes":[],"categories_segments":[],"categories_sizes":[],"default_left":[0,0,0,0,0,0,0],"id":115,"left_children":[1,3,5,-1,-1,-1,-1],"loss_changes":[1.9232946E-2,2.0267582E-2,6.482055E-3,0E0,0E0,0E0,0E0],"parents":[2147483647,0,0,1,1,2,2],"right_children":[2,4,6,-1,-1,-1,-1],"split_conditions":[-7.0521295E-2,-2.2252093E-1,-5.0338853E-2,-6.689953E-5,-5.181096E-6,-9.939345E-6,1.7115517E-6],"split_indices":[7,18,9,0,0,0,0],"split_type":[0,0,0,0,0,0,0],"sum_hessian":[1.397E3,2.9E1,1.368E3,1E1,1.9E1,6.4E1,1.304E3],"tree_param":{"num_deleted":"0","num_feature":"21","num_nodes":"7","size_leaf_vector":"1"}},{"base_weights":[1.6312643E-4,1.723936E-2,-1.0348659E-3,1.5199612E-5,5.7801415E-5,-2.2506015E-7,-1.5901664E-5],"categories":[],"categories_nodes":[],"categories_segments":[],"categories_sizes":[],"default_left":[0,0,0,0,0,0,0],"id":116,"left_children":[1,3,5,-1,-1,-1,-1],"loss_changes":[2.808511E-2,1.1059608E-2,1.3886971E-2,0E0,0E0,0E0,0E0],"parents":[2147483647,0,0,1,1,2,2],"right_children":[2,4,6,-1,-1,-1,-1],"split_conditions":[-2.3584906E-2,1.7500156E0,2.4349751E-2,1.5199612E-5,5.7801415E-5,-2.2506015E-7,-1.5901664E-5],"split_indices":[2,10,5,0,0,0,0],"split_type":[0,0,0,0,0,0,0],"sum_hessian":[1.371E3,8.9E1,1.282E3,8.1E1,8E0,1.205E3,7.7E1],"tree_param":{"num_deleted":"0","num_feature":"21","num_nodes":"7","size_leaf_vector":"1"}},{"base_weights":[-7.565823E-4,1.4397944E-2,-1.802769E-3,1.2924591E-5,6.1647115E-5,-1.0853722E-6,-1.4467948E-5],"categories":[],"categories_nodes":[],"categories_segments":[],"categories_sizes":[],"default_left":[0,0,0,0,0,0,0],"id":117,"left_children":[1,3,5,-1,-1,-1,-1],"loss_changes":[2.1603882E-2,1.0041142E-2,1.1789147E-2,0E0,0E0,0E0,0E0],"parents":[2147483647,0,0,1,1,2,2],"right_children":[2,4,6,-1,-1,-1,-1],"split_conditions":[-2.3584906E-2,1.7718705E0,2.2649279E-2,1.2924591E-5,6.1647115E-5,-1.0853722E-6,-1.4467948E-5],"split_indices":[2,10,5,0,0,0,0],"split_type":[0,0,0,0,0,0,0],"sum_hessian":[1.36E3,8.7E1,1.273E3,8.2E1,5E0,1.182E3,9.1E1],"tree_param":{"num_deleted":"0","num_feature":"21","num_nodes":"7","size_leaf_vector":"1"}},{"base_weights":[3.3894804E-4,2.87758E-2,4.137159E-5,8.8772846E-5,2.162698E-5,2.6124422E-5,-3.8821165E-7],"categories":[],"categories_nodes":[],"categories_segments":[],"categories_sizes":[],"default_left":[0,0,0,0,0,0,0],"id":118,"left_children":[1,3,5,-1,-1,-1,-1],"loss_changes":[1.14396205E-2,5.2552596E-3,1.1732732E-2,0E0,0E0,0E0,0E0],"parents":[2147483647,0,0,1,1,2,2],"right_children":[2,4,6,-1,-1,-1,-1],"split_conditions":[-8.588037E-2,9.920457E-1,-6.8822555E-2,8.8772846E-5,2.162698E-5,2.6124422E-5,-3.8821165E-7],"split_indices":[13,14,3,0,0,0,0],"split_type":[0,0,0,0,0,0,0],"sum_hessian":[1.351E3,1.3E1,1.338E3,1E0,1.2E1,2.1E1,1.317E3],"tree_param":{"num_deleted":"0","num_feature":"21","num_nodes":"7","size_leaf_vector":"1"}},{"base_weights":[-6.1165757E-4,1.609978E-2,-1.7843704E-3,6.488111E-5,1.4829617E-5,-3.3004922E-5,-1.2123593E-6],"categories":[],"categories_nodes":[],"categories_segments":[],"categories_sizes":[],"default_left":[0,0,0,0,0,0,0],"id":119,"left_children":[1,3,5,-1,-1,-1,-1],"loss_changes":[2.6897198E-2,1.0573512E-2,2.506417E-2,0E0,0E0,0E0,0E0],"parents":[2147483647,0,0,1,1,2,2],"right_children":[2,4,6,-1,-1,-1,-1],"split_conditions":[-2.3584906E-2,-1.0013197E-1,-6.70354E-2,6.488111E-5,1.4829617E-5,-3.3004922E-5,-1.2123593E-6],"split_indices":[2,0,7,0,0,0,0],"split_type":[0,0,0,0,0,0,0],"sum_hessian":[1.37E3,8.9E1,1.281E3,5E0,8.4E1,3.2E1,1.249E3],"tree_param":{"num_deleted":"0","num_feature":"21","num_nodes":"7","size_leaf_vector":"1"}},{"base_weights":[4.2871706E-4,3.5325177E-2,6.811295E-5,1.495089E-5,6.335553E-5,7.516144E-7,-1.502043E-5],"categories":[],"categories_nodes":[],"categories_segments":[],"categories_sizes":[],"default_left":[0,0,0,0,0,0,0],"id":120,"left_children":[1,3,5,-1,-1,-1,-1],"loss_changes":[1.7224826E-2,5.582638E-3,1.0653524E-2,0E0,0E0,0E0,0E0],"parents":[2147483647,0,0,1,1,2,2],"right_children":[2,4,6,-1,-1,-1,-1],"split_conditions":[-6.8822555E-2,1.2264678E0,4.133644E-2,1.495089E-5,6.335553E-5,7.516144E-7,-1.502043E-5],"split_indices":[3,12,3,0,0,0,0],"split_type":[0,0,0,0,0,0,0],"sum_hessian":[1.368E3,1.3E1,1.355E3,7E0,6E0,1.298E3,5.7E1],"tree_param":{"num_deleted":"0","num_feature":"21","num_nodes":"7","size_leaf_vector":"1"}},{"base_weights":[-4.2251235E-5,-2.5557272E-2,5.4886297E-4,-1.2034402E-5,-8.3451014E-5,1.4721752E-10,3.8528633E-5],"categories":[],"categories_nodes":[],"categories_segments":[],"categories_sizes":[],"default_left":[0,0,0,0,0,0,0],"id":121,"left_children":[1,3,5,-1,-1,-1,-1],"loss_changes":[1.998298E-2,2.0688832E-2,2.3656089E-2,0E0,0E0,0E0,0E0],"parents":[2147483647,0,0,1,1,2,2],"right_children":[2,4,6,-1,-1,-1,-1],"split_conditions":[-7.0521295E-2,2.5531914E-2,3.498728E-2,-1.2034402E-5,-8.3451014E-5,1.4721752E-10,3.8528633E-5],"split_indices":[7,5,4,0,0,0,0],"split_type":[0,0,0,0,0,0,0],"sum_hessian":[1.323E3,2.9E1,1.294E3,2.3E1,6E0,1.274E3,2E1],"tree_param":{"num_deleted":"0","num_feature":"21","num_nodes":"7","size_leaf_vector":"1"}},{"base_weights":[7.693567E-4,1.3112666E-3,-3.7375957E-2,2.8607115E-5,9.541327E-7,-8.540936E-5,-2.5434656E-5],"categories":[],"categories_nodes":[],"categories_segments":[],"categories_sizes":[],"default_left":[0,0,0,0,0,0,0],"id":122,"left_children":[1,3,5,-1,-1,-1,-1],"loss_changes":[2.8037976E-2,1.5036236E-2,9.077543E-3,0E0,0E0,0E0,0E0],"parents":[2147483647,0,0,1,1,2,2],"right_children":[2,4,6,-1,-1,-1,-1],"split_conditions":[3.9973218E-2,-5.348561E-2,7.973129E-1,2.8607115E-5,9.541327E-7,-8.540936E-5,-2.5434656E-5],"split_indices":[5,3,12,0,0,0,0],"split_type":[0,0,0,0,0,0,0],"sum_hessian":[1.353E3,1.335E3,1.8E1,2.5E1,1.31E3,4E0,1.4E1],"tree_param":{"num_deleted":"0","num_feature":"21","num_nodes":"7","size_leaf_vector":"1"}},{"base_weights":[-8.871446E-4,-4.1102566E-2,-5.37815E-4,2.6171062E-6,-8.247052E-5,2.8722037E-5,-1.0199248E-6],"categories":[],"categories_nodes":[],"categories_segments":[],"categories_sizes":[],"default_left":[0,0,0,0,0,0,0],"id":123,"left_children":[1,3,5,-1,-1,-1,-1],"loss_changes":[1.9575465E-2,1.6483124E-2,1.2786278E-2,0E0,0E0,0E0,0E0],"parents":[2147483647,0,0,1,1,2,2],"right_children":[2,4,6,-1,-1,-1,-1],"split_conditions":[-8.588037E-2,5.9970017E-3,-6.8822555E-2,2.6171062E-6,-8.247052E-5,2.8722037E-5,-1.0199248E-6],"split_indices":[7,5,3,0,0,0,0],"split_type":[0,0,0,0,0,0,0],"sum_hessian":[1.394E3,1.1E1,1.383E3,5E0,6E0,1.8E1,1.365E3],"tree_param":{"num_deleted":"0","num_feature":"21","num_nodes":"7","size_leaf_vector":"1"}},{"base_weights":[-2.6552327E-4,1.8891908E-2,-1.4179768E-3,1.372649E-5,4.712603E-5,-5.792063E-7,-1.7999288E-5],"categories":[],"categories_nodes":[],"categories_segments":[],"categories_sizes":[],"default_left":[0,0,0,0,0,0,0],"id":124,"left_children":[1,3,5,-1,-1,-1,-1],"loss_changes":[3.0737355E-2,1.1651259E-2,1.7172258E-2,0E0,0E0,0E0,0E0],"parents":[2147483647,0,0,1,1,2,2],"right_children":[2,4,6,-1,-1,-1,-1],"split_conditions":[-2.5148166E-2,1.0183299E-2,2.4349751E-2,1.372649E-5,4.712603E-5,-5.792063E-7,-1.7999288E-5],"split_indices":[2,5,5,0,0,0,0],"split_type":[0,0,0,0,0,0,0],"sum_hessian":[1.39E3,7.8E1,1.312E3,6.1E1,1.7E1,1.235E3,7.7E1],"tree_param":{"num_deleted":"0","num_feature":"21","num_nodes":"7","size_leaf_vector":"1"}},{"base_weights":[4.0552844E-4,3.654571E-2,9.734695E-7,8.057522E-5,2.0116928E-5,-3.8089114E-5,3.7369813E-7],"categories":[],"categories_nodes":[],"categories_segments":[],"categories_sizes":[],"default_left":[0,0,0,0,0,0,0],"id":125,"left_children":[1,3,5,-1,-1,-1,-1],"loss_changes":[1.9811E-2,8.439913E-3,1.4691226E-2,0E0,0E0,0E0,0E0],"parents":[2147483647,0,0,1,1,2,2],"right_children":[2,4,6,-1,-1,-1,-1],"split_conditions":[-7.937936E-2,-5.3393465E-2,-8.588037E-2,8.057522E-5,2.0116928E-5,-3.8089114E-5,3.7369813E-7],"split_indices":[13,11,7,0,0,0,0],"split_type":[0,0,0,0,0,0,0],"sum_hessian":[1.354E3,1.4E1,1.34E3,4E0,1E1,1.2E1,1.328E3],"tree_param":{"num_deleted":"0","num_feature":"21","num_nodes":"7","size_leaf_vector":"1"}},{"base_weights":[-2.1236316E-4,1.8751007E-2,-1.448614E-3,1.33720605E-5,3.6542893E-5,-8.175808E-5,-1.3324503E-6],"categories":[],"categories_nodes":[],"categories_segments":[],"categories_sizes":[],"default_left":[0,0,0,0,0,0,0],"id":126,"left_children":[1,3,5,-1,-1,-1,-1],"loss_changes":[3.1793084E-2,7.3831305E-3,2.4847038E-2,0E0,0E0,0E0,0E0],"parents":[2147483647,0,0,1,1,2,2],"right_children":[2,4,6,-1,-1,-1,-1],"split_conditions":[-2.3584906E-2,8.660254E-1,-1.0013197E-1,1.33720605E-5,3.6542893E-5,-8.175808E-5,-1.3324503E-6],"split_indices":[2,19,7,0,0,0,0],"split_type":[0,0,0,0,0,0,0],"sum_hessian":[1.354E3,8.2E1,1.272E3,5.5E1,2.7E1,4E0,1.268E3],"tree_param":{"num_deleted":"0","num_feature":"21","num_nodes":"7","size_leaf_vector":"1"}},{"base_weights":[-7.1678696E-5,9.176204E-4,-1.8003456E-2,1.6710901E-5,6.157467E-8,4.8808313E-5,-2.6488724E-5],"categories":[],"categories_nodes":[],"categories_segments":[],"categories_sizes":[],"default_left":[0,0,0,0,0,0,0],"id":127,"left_children":[1,3,5,-1,-1,-1,-1],"loss_changes":[2.408955E-2,1.5290791E-2,2.37339E-2,0E0,0E0,0E0,0E0],"parents":[2147483647,0,0,1,1,2,2],"right_children":[2,4,6,-1,-1,-1,-1],"split_conditions":[2.4349751E-2,-2.5148166E-2,-7.937936E-2,1.6710901E-5,6.157467E-8,4.8808313E-5,-2.6488724E-5],"split_indices":[5,2,13,0,0,0,0],"split_type":[0,0,0,0,0,0,0],"sum_hessian":[1.356E3,1.286E3,7E1,7.5E1,1.211E3,5E0,6.5E1],"tree_param":{"num_deleted":"0","num_feature":"21","num_nodes":"7","size_leaf_vector":"1"}},{"base_weights":[-2.3100339E-4,-6.437338E-4,2.3878906E-2,7.691447E-8,-1.386833E-5,4.358026E-5,-1.6504331E-5],"categories":[],"categories_nodes":[],"categories_segments":[],"categories_sizes":[],"default_left":[0,0,0,0,0,0,0],"id":128,"left_children":[1,3,5,-1,-1,-1,-1],"loss_changes":[1.3598339E-2,1.1021106E-2,1.3261282E-2,0E0,0E0,0E0,0E0],"parents":[2147483647,0,0,1,1,2,2],"right_children":[2,4,6,-1,-1,-1,-1],"split_conditions":[3.498728E-2,3.818182E-2,8.660254E-1,7.691447E-8,-1.386833E-5,4.358026E-5,-1.6504331E-5],"split_indices":[4,3,20,0,0,0,0],"split_type":[0,0,0,0,0,0,0],"sum_hessian":[1.364E3,1.342E3,2.2E1,1.265E3,7.7E1,1.6E1,6E0],"tree_param":{"num_deleted":"0","num_feature":"21","num_nodes":"7","size_leaf_vector":"1"}},{"base_weights":[-8.065325E-4,-3.687737E-4,-4.7214273E-2,-7.286321E-7,3.4838056E-5,-1.048197E-4,-3.494501E-5],"categories":[],"categories_nodes":[],"categories_segments":[],"categories_sizes":[],"default_left":[0,0,0,0,0,0,0],"id":129,"left_children":[1,3,5,-1,-1,-1,-1],"loss_changes":[2.8261622E-2,1.1607346E-2,6.807441E-3,0E0,0E0,0E0,0E0],"parents":[2147483647,0,0,1,1,2,2],"right_children":[2,4,6,-1,-1,-1,-1],"split_conditions":[3.9973218E-2,4.1221373E-2,-4.4856004E-2,-7.286321E-7,3.4838056E-5,-1.048197E-4,-3.494501E-5],"split_indices":[5,4,9,0,0,0,0],"split_type":[0,0,0,0,0,0,0],"sum_hessian":[1.391E3,1.379E3,1.2E1,1.368E3,1.1E1,2E0,1E1],"tree_param":{"num_deleted":"0","num_feature":"21","num_nodes":"7","size_leaf_vector":"1"}},{"base_weights":[3.054798E-4,1.4734654E-2,-4.0596974E-4,6.115236E-5,1.0475454E-5,-7.924603E-5,-1.6681919E-7],"categories":[],"categories_nodes":[],"categories_segments":[],"categories_sizes":[],"default_left":[0,0,0,0,0,0,0],"id":130,"left_children":[1,3,5,-1,-1,-1,-1],"loss_changes":[1.4418925E-2,1.3741699E-2,2.4028588E-2,0E0,0E0,0E0,0E0],"parents":[2147483647,0,0,1,1,2,2],"right_children":[2,4,6,-1,-1,-1,-1],"split_conditions":[-2.5148166E-2,-7.375355E-2,-1.0013197E-1,6.115236E-5,1.0475454E-5,-7.924603E-5,-1.6681919E-7],"split_indices":[2,11,7,0,0,0,0],"split_type":[0,0,0,0,0,0,0],"sum_hessian":[1.403E3,6.5E1,1.338E3,7E0,5.8E1,4E0,1.334E3],"tree_param":{"num_deleted":"0","num_feature":"21","num_nodes":"7","size_leaf_vector":"1"}},{"base_weights":[4.5844342E-4,2.1405712E-2,-3.329628E-4,5.5095083E-5,1.2088985E-5,2.2780464E-8,-4.835233E-5],"categories":[],"categories_nodes":[],"categories_segments":[],"categories_sizes":[],"default_left":[0,0,0,0,0,0,0],"id":131,"left_children":[1,3,5,-1,-1,-1,-1],"loss_changes":[2.2768442E-2,1.4041163E-2,1.9691275E-2,0E0,0E0,0E0,0E0],"parents":[2147483647,0,0,1,1,2,2],"right_children":[2,4,6,-1,-1,-1,-1],"split_conditions":[-2.7536232E-2,7.973129E-1,8.551802E-2,5.5095083E-5,1.2088985E-5,2.2780464E-8,-4.835233E-5],"split_indices":[2,16,0,0,0,0,0],"split_type":[0,0,0,0,0,0,0],"sum_hessian":[1.372E3,4.9E1,1.323E3,1.3E1,3.6E1,1.313E3,1E1],"tree_param":{"num_deleted":"0","num_feature":"21","num_nodes":"7","size_leaf_vector":"1"}},